the 0.497177 -0.565309 -0.939962 0.341198 1.075256 0.434714 -1.294973 0.721558 -0.088746 -0.921645 -0.381675 0.665659 -2.183015 -0.376175 0.858424 1.417772 1.273107 -0.807939 -0.322978 -3.332136 0.843440 1.607793 -0.623256 0.121210 0.713827 -0.983720 -1.072927 -2.175102 -0.486541 -1.723307 -1.296104 -1.373881 -1.382658 1.277737 -1.432406 -0.485432 -0.239252 -0.197861 -0.278391 -0.838089 -0.579905 1.042897 0.954430 -1.308369 2.653504 -0.140379 -2.713119 -1.058322 -0.169720 0.193978
and 0.588284 0.406755 0.836720 0.660736 -1.813090 -1.236460 1.830304 -0.198006 0.620427 -0.152525 1.418852 0.038517 -2.616203 -1.200025 -0.322451 0.672016 0.079688 0.724680 0.555996 -0.095251 0.336540 0.138855 -1.458922 -0.487321 0.115688 -0.799721 -0.432580 -0.425731 0.440899 -1.582435 0.218750 0.982299 -0.737978 0.195177 -1.066275 0.131152 0.481657 -0.337661 0.028082 -2.164474 0.190130 -0.284334 0.315240 -1.086180 0.947875 0.533990 -2.585355 -1.583412 0.293319 0.844301
you 0.984387 0.711320 -0.364812 -0.915857 -0.602470 -1.455312 2.346708 0.106948 0.830614 -0.628114 -0.193930 0.890374 -1.127012 0.415108 -0.778024 -0.224219 0.451490 0.492690 0.052743 -0.577546 -0.047728 -1.127591 -0.443407 -1.499327 -0.672454 0.369912 -0.880448 -0.733463 -0.813605 -0.463993 0.274666 -0.635632 -1.222228 -0.238270 -1.715547 -1.353362 -0.898961 0.479987 -1.707001 -0.110406 0.404986 -0.094969 0.576261 0.016573 1.635645 0.127071 -1.344414 -0.683952 1.338774 0.632014
with 0.580681 0.278357 0.481903 0.679984 -1.332264 -2.129352 0.782594 -1.243699 0.155184 -0.931280 0.362967 -0.466968 -0.124878 0.324587 -0.392536 1.084650 0.043726 -0.994379 0.139364 -1.380617 -0.217115 0.225809 -0.630454 0.205977 -1.025821 -0.152427 -0.221067 -1.320485 0.348796 -0.988320 -0.759616 0.878093 -0.988914 0.629265 -0.723033 0.788213 -0.707490 0.570670 -0.242486 -0.676219 -1.355636 1.204171 0.524789 -0.133972 0.402818 0.812932 -1.604134 0.023228 0.870106 1.531094
for 1.593748 -0.221876 1.060559 -1.096162 0.711103 -1.790850 0.534929 -1.287483 -0.085045 -2.943437 0.062354 0.245371 -0.070210 0.704849 -0.628236 0.516672 0.169592 -0.035546 0.024231 0.089024 0.929854 -0.841527 -0.231115 -0.999529 0.525892 -0.074960 -1.213671 -1.033054 0.465129 -0.071051 -0.236102 -0.149903 -0.411701 -0.925717 -1.070210 0.045590 0.263151 -0.535719 -0.875361 -2.462417 0.971681 0.639728 1.449026 -0.639952 1.360926 0.188769 -0.459548 -1.354146 -0.400887 0.352782
from -0.789580 -0.602569 0.711970 -0.064579 0.251097 -0.070872 1.617022 0.601131 -0.796271 -0.185977 0.050456 -0.509335 -0.896928 -0.564768 -1.077914 0.716875 -0.479417 0.937582 0.429365 -1.754364 -0.245335 0.244842 -0.988028 -0.563756 1.248773 -0.719228 -1.484269 -1.158547 -0.351817 -1.138179 -0.641653 0.306795 -0.091827 1.036242 -1.973568 0.475938 -0.940861 1.224606 -1.550761 -0.273041 -0.332663 0.646359 0.785330 0.083144 -0.637302 0.059301 -1.089459 -1.379710 -0.335624 -0.461870
her -0.182363 0.019405 1.096293 0.592110 0.538579 -1.901198 1.261235 0.501523 0.467072 -1.432654 0.511548 0.028505 -0.263000 -0.295603 -0.140132 0.679360 -0.229332 -0.878157 -0.827563 -0.627870 0.683727 0.591688 -0.075751 -1.232109 0.450700 -1.947830 -1.240544 0.499159 -0.695451 0.600691 0.045782 -1.040184 -1.598124 0.403606 -0.375035 0.908720 0.084639 -0.416378 -0.399963 0.842634 -1.075927 0.275120 0.890247 -0.997805 -0.470725 1.328489 -1.061686 -0.780637 -0.480037 -0.430454
moon -0.028035 -0.662823 -1.096747 -0.152922 0.367246 -0.820973 0.983738 0.728199 -0.720097 -0.672756 -0.306259 -0.246981 0.033207 -0.559402 -0.843984 1.052849 -0.496281 0.692704 0.587201 -0.426575 0.230439 1.197202 -0.777982 -2.331493 -0.420249 -2.268839 1.071176 -1.499180 0.803355 0.310505 -0.720436 -0.391955 -0.432766 1.532109 -1.123342 0.155177 0.457650 -0.197969 -0.611968 -0.494302 -0.878305 -0.707804 0.176427 1.053951 1.002911 0.851102 -1.187819 -0.255693 -0.433745 0.597573
rain 0.123702 0.209685 0.540838 -0.433587 0.064430 -0.375171 0.056480 -0.212116 1.262005 -1.302924 -0.977164 -0.553438 0.607337 -1.131469 -0.273883 1.613005 -0.100664 -0.849949 -0.329278 -0.020536 -0.655008 -0.115019 -1.230257 -0.010581 0.440860 -0.934698 -1.381723 -0.417094 0.898852 -1.064312 -0.871235 -0.476567 -0.328768 0.322463 -1.454477 -0.321374 0.239661 0.982741 0.302014 0.231020 -1.293117 0.981659 0.031845 -0.500891 0.577808 -0.176085 -1.468908 -0.502503 -0.475544 0.096291
day 0.815575 -0.166380 0.039137 0.917514 0.022419 -0.936622 0.728429 0.601883 -0.700071 -1.127008 0.348964 0.850629 0.677901 -1.842408 0.847338 0.683360 1.244968 0.080114 -0.360037 0.437573 -1.214930 0.651816 -0.024779 -0.924436 0.273421 -1.276646 -1.384952 -0.875934 1.291623 0.502710 -1.491567 1.060197 -1.136389 1.113281 -1.312263 -0.006754 0.033681 -0.318808 -0.095591 -0.062484 0.977923 0.186689 1.617898 -0.483628 -0.105417 0.004827 -1.329932 -0.460848 0.429911 0.788581
night 0.223034 -0.579441 0.338860 -0.502829 -0.005067 -0.797442 -0.031706 -0.503346 -0.236437 -1.278065 -0.565393 -0.712725 -1.309960 -1.885595 -0.317806 0.701587 0.115960 -0.662870 0.169016 0.262188 -0.608092 0.820747 -0.758370 -0.180004 -0.724198 -1.544073 -0.389440 -1.166791 1.310911 0.287656 -0.332427 -0.862853 -1.013507 0.533606 -1.463635 -0.912534 -1.562136 0.268037 -0.015283 0.037416 0.408332 -0.132800 0.698068 1.303326 0.066525 -0.179737 -2.050520 -0.561980 -0.531875 0.221105
morning 0.105419 0.303688 0.634524 0.069632 -0.097421 -0.358817 0.411872 0.321651 -0.810808 -0.391129 -0.318417 0.404178 0.181104 -0.610823 0.093621 0.766820 -0.839184 -0.210616 -0.317997 -0.039337 0.140801 -0.466157 -0.271200 -0.743296 0.754180 -1.365588 -0.886862 -2.100801 1.544836 -0.686741 0.207893 0.224491 -1.601909 1.128543 -0.206388 0.786971 -0.816364 1.039862 0.938343 -0.601400 0.147725 1.241503 -0.007468 0.026550 1.661253 -0.152124 -0.387625 -1.057366 0.224650 -0.528092
all 0.339767 0.449619 0.683209 0.122255 -0.291703 -0.363622 0.649572 0.247629 0.286587 -1.023862 0.521722 0.730710 -0.056856 -0.633584 -0.592442 -0.203045 0.862114 0.488801 -0.044631 -0.363557 -0.815946 -0.369277 -0.570152 -0.511186 -0.442947 -0.022254 -1.303047 -0.328613 0.495911 -0.534450 0.413247 -0.632597 -0.649747 0.204781 -1.424407 0.269664 -0.360054 -0.078582 -0.072984 -0.379863 0.030415 0.511154 1.969573 1.011079 1.312497 0.397410 -1.615987 -0.367053 0.568797 1.578286
summer -0.440732 0.947222 -1.193716 -0.447801 0.287259 -1.184660 0.796660 -0.039562 -0.151739 -0.833548 -0.123592 -0.027967 -0.262541 -1.401142 -0.082911 1.758905 0.617974 -0.739730 -0.177496 -0.927578 -0.594938 -0.176086 0.308978 -0.374599 -0.232936 -0.634095 -1.170184 -0.673840 0.703454 -0.550757 -0.910931 -1.287164 -0.374407 1.105040 0.016142 -0.086109 0.223419 0.633038 -0.134534 -0.140514 -0.374172 0.067052 0.243548 0.914356 -0.019302 -0.277127 -1.711013 -1.237718 -0.552131 -0.517774
winter 0.552071 0.284245 0.121638 -0.383388 0.244784 -0.336857 0.471766 0.095407 -0.372805 -1.120002 -0.379969 -1.055085 -0.454225 -0.685450 -0.983653 1.110472 -0.264518 -0.897796 1.154949 -0.580713 0.267650 -0.381464 -1.178218 -0.572282 -0.295671 -0.960116 -0.864512 -1.079862 1.676388 -0.420289 -0.124077 -0.884610 -0.373695 0.617354 -0.820060 0.736663 0.473535 0.678663 0.136414 0.154590 0.115366 0.339922 0.304179 0.269219 0.798328 -0.125122 -0.800018 -0.654355 -0.408013 -0.549612
autumn 0.395407 1.197786 0.374221 -0.358043 0.377001 -0.651330 0.408671 0.265373 -1.128099 0.315914 -0.453847 -0.574297 0.363982 -0.865440 -0.759137 1.278691 -0.231262 -0.800041 -0.114384 -0.506372 -0.198685 -0.034464 -0.992302 -0.451570 -0.513067 -0.187873 -0.579366 -0.566175 0.677563 -0.205051 0.080080 -1.080223 -0.575123 1.351508 -0.811543 0.879213 0.299914 0.106259 0.294091 -0.072318 -0.498257 1.054582 -0.205155 0.062241 1.126405 -0.414258 -1.966524 -0.646011 -0.373341 -0.695930
wind 0.433314 0.162923 0.349391 0.260411 -0.099921 -0.786603 -0.108401 -0.045240 0.231214 -0.056302 -0.325498 0.213385 -0.326879 -0.710683 -1.370954 1.449325 0.128853 -0.387876 0.795831 -0.814860 -0.836290 0.428878 -1.540499 -0.265742 -0.377934 -0.390401 0.435176 -0.483019 0.633675 -0.113242 0.297492 -0.564568 0.043758 0.804309 -0.588057 1.671763 0.704153 1.002079 -0.116695 0.838197 -1.033158 0.549999 0.885957 -1.685120 0.877247 -0.709677 -1.580528 0.152606 -0.339810 -0.146458
one 0.677328 0.054677 -0.460168 0.259786 0.116052 -0.795634 1.919863 0.583287 0.501989 -1.136389 -0.157972 -0.455078 -1.110609 -0.012598 -0.394972 0.260761 1.119886 -1.466748 -0.692751 -0.841377 -0.293773 0.458453 0.257187 -0.654126 -0.118462 0.232394 -0.066823 0.036123 0.635943 -0.625678 -1.078060 0.075586 -1.242613 0.708343 -1.500647 0.023025 0.508082 -0.177591 -0.835953 -1.484582 0.449911 0.302840 -0.038811 0.028588 0.214045 0.037071 -0.909084 -0.057838 -1.196536 -0.343814
his -0.346713 -0.470146 0.079927 -0.299563 1.089973 -1.190148 1.256541 0.121670 -0.222295 -0.278956 0.637865 0.109117 0.601976 -0.874929 -0.794570 -0.183169 -0.400522 -1.240768 0.114569 -1.190024 1.479438 -0.644987 -1.326918 -0.896392 0.304071 -0.744023 -0.720184 0.353357 -0.743257 0.750490 -0.210986 0.440916 -1.881268 -0.364097 0.380699 0.931531 -0.185798 0.592342 0.312739 -0.013515 0.010391 0.540056 0.615626 -0.139651 0.282620 0.604801 -1.532052 -0.605932 -0.765780 0.458234
your 0.424200 0.437009 0.978674 0.178936 0.532282 -1.439367 2.343924 -0.206235 0.148766 0.087078 1.040315 0.227562 -1.356677 0.677031 0.131143 0.482752 0.396465 0.418602 0.020697 -0.395701 0.810918 0.751108 -1.030408 -1.043874 -0.727097 0.013730 -0.855767 0.125445 -0.896146 0.300157 0.029318 -0.086662 -1.140294 -0.049950 -0.808394 -0.489261 -0.133679 0.561677 -0.672724 0.504556 -0.096116 0.538118 0.960767 -1.144874 1.435183 0.043101 0.132344 -1.027003 0.347534 0.618021
spring -0.271303 0.235728 -0.141158 0.202337 0.354688 -1.339153 -0.347804 0.648823 -0.411079 -1.051150 0.056811 -0.785001 0.331886 -1.010812 -0.026901 0.710208 0.136996 -0.090895 0.441911 -0.422344 -0.364318 -0.947513 -0.307578 -0.460134 0.489189 -1.495279 -1.207078 -0.808811 1.454537 -0.571470 -0.389080 0.322243 -0.687526 1.384767 -0.485527 0.588518 0.348574 0.254882 -0.099256 -0.048994 -0.521502 0.974484 0.116816 -0.531560 0.859409 -0.092503 -0.293892 -0.750468 -0.240707 -0.121619
not 0.802413 0.293151 0.065609 -0.135870 0.026532 -0.774854 0.838071 -0.117662 0.342682 -0.832983 -0.044534 -0.521896 -0.299916 -0.245408 0.186605 -0.603152 -0.061227 1.003822 -0.815139 -0.363386 -0.341239 -0.954169 -0.654824 -0.870450 -0.065727 0.125175 -0.363565 -0.356722 -0.450235 -0.370303 1.227492 0.106405 -1.834511 0.135326 -1.717021 0.265161 -1.103807 -0.387973 -0.721458 -0.715138 1.501555 0.549205 0.513495 -0.659334 1.610291 0.143669 -0.603241 0.322225 -0.501652 0.330623
this 0.514413 0.874469 -0.683462 -0.231853 -0.351004 -0.952282 1.000565 0.293364 -0.639939 -0.466976 -0.441838 0.188170 -0.058293 -0.015084 -0.734265 0.550990 0.227077 -0.453634 -1.398642 -0.270807 -0.319771 0.505360 -0.682853 -0.502520 -0.811661 0.116071 -0.870253 -0.251567 0.862985 -0.185266 0.406159 0.312466 -1.380999 0.246981 -1.320535 0.136209 0.288427 0.071671 -0.227389 -0.957522 0.795733 1.033779 0.450876 -0.216316 0.858472 -0.178323 -0.845069 -0.378055 0.700274 -0.397398
into -0.488346 -0.403588 1.063607 0.755775 -0.331683 -0.303282 1.034226 -0.098036 -0.763938 -0.592907 -0.405560 -0.979498 -1.488022 -0.913875 -0.670282 1.748697 0.041753 -0.187859 -1.301992 -1.024685 -0.044269 0.103347 -0.948718 -0.060290 0.918660 0.028312 -0.639574 -0.437675 0.453146 0.408283 -0.234308 -0.783716 -0.411212 -0.431359 -1.008249 0.701779 0.960852 0.380872 0.684273 0.102036 0.292564 1.125433 -0.852984 0.227786 -0.176466 -0.126711 -0.496853 -0.090400 -0.621077 0.237632
that 0.513007 -0.198090 0.211586 -0.285525 -0.664741 -0.677432 1.151055 0.606544 0.834363 -0.444649 0.140981 0.891300 -0.523521 -0.686463 -0.935851 -0.520665 1.147186 -0.337993 -0.842712 -0.717158 -0.264240 -0.362195 -0.497519 -0.774886 -1.009446 -0.747885 0.401706 -0.375751 0.033515 -0.350771 0.654156 -0.372006 -0.942052 0.309116 -1.298306 -0.228704 0.184094 0.512131 -1.089736 0.044707 0.624521 0.603285 0.644978 -0.072696 1.346949 -0.596334 -0.502293 -0.435767 -0.115181 0.437573
leaves 0.166635 0.566922 1.031459 0.336876 0.540691 -0.198133 -0.095341 -0.510017 0.294920 0.511187 -0.499028 0.401023 1.438231 0.103877 -0.649101 1.027176 -0.263977 -0.288097 -0.426252 -0.307330 -1.149525 0.378526 -0.580924 -0.468846 -0.329587 0.036543 -0.350216 -0.282863 -0.389066 -1.194764 -0.237833 -0.977886 -0.048343 1.175396 -1.210075 0.518572 0.760544 0.347846 -0.022786 -0.631869 -0.304858 0.989828 0.064575 -0.096775 0.800408 0.265419 -2.653004 -0.414586 -1.198836 0.354375
are 0.759926 0.194283 1.406464 0.536340 -0.336760 0.540231 1.391341 0.016519 0.438068 -1.243010 -0.102045 0.416217 -0.648811 0.396359 -0.283011 -0.353023 1.171865 0.924642 1.267681 -0.503473 -0.048887 0.080079 -0.211847 0.035493 -0.803634 0.469350 -0.793623 -0.591994 0.955409 -0.371456 1.550196 -0.233938 -0.717730 1.013550 -0.638186 1.137100 -1.037085 -0.444459 -1.101911 0.090626 0.808743 0.245706 0.646805 0.045744 0.974235 -0.113593 -1.137786 -0.210946 0.557176 0.704997
old -0.060024 -1.453002 -0.416176 -0.059229 0.281425 -0.124481 -0.077446 -1.311101 -0.253924 -1.046844 0.058180 -1.096275 0.488122 0.282085 -0.481759 0.610255 0.279163 0.123273 -0.451976 -1.027747 0.729111 0.480855 -1.370893 -0.792583 -0.873459 -0.566778 -0.949356 -0.216013 0.357405 -0.611334 0.319619 0.969853 -0.588658 0.855087 -0.049155 0.777779 0.857482 -0.472729 -0.340675 -0.267447 -0.307498 1.262241 -0.115220 -0.364633 0.176778 0.888202 -1.572453 -1.077109 -0.132717 0.087859
out 0.215763 -0.505436 0.948467 0.420253 -0.585160 -0.646305 1.040632 -0.481210 -0.535870 -0.631556 -0.923683 -0.454027 -1.532449 -0.106273 -0.263851 0.445370 0.312988 0.548051 -1.264480 -0.750081 0.703246 -0.350330 -0.066565 -0.423090 1.262307 0.322855 -0.589700 -0.492584 0.455423 0.498373 -0.239073 -0.439156 -0.398582 -0.373776 -1.161018 0.499695 0.269667 0.000665 0.172020 0.277913 0.136008 1.123527 -0.206330 0.421193 0.136451 0.679084 -1.455721 -0.237044 -0.097116 1.186970
snow -0.359747 -0.367138 1.215466 0.830839 0.105861 -0.032183 -0.340976 0.588864 -0.006657 -0.842200 -0.791166 -0.731480 0.961229 -0.881733 -0.008534 -0.010756 -0.791800 -1.267987 0.382653 -0.378261 -0.583200 -0.356046 -0.877615 0.036943 -0.035447 -1.288347 -0.848846 -0.880297 1.080295 -0.604710 -0.826159 0.103815 -0.851223 0.218447 -1.593392 -0.035535 0.820560 0.308331 -0.022720 -0.027997 -0.004642 0.478150 -0.963569 -0.078581 1.132274 0.330121 -1.353754 0.347154 -0.660657 1.186998
first 0.812382 -0.616545 1.397228 1.284382 0.290851 -1.452927 0.263769 0.514307 0.348337 -0.355650 0.199312 -0.490240 0.116417 -0.769191 0.309209 0.114290 0.233504 -1.164444 -0.123798 -0.226850 0.195546 -0.674845 -0.029580 -0.879025 0.512900 -1.233525 -0.392405 -0.099778 0.933352 -0.556460 -1.029027 0.995610 -0.286248 1.389076 -0.559276 -1.007685 -0.540760 -0.095509 -0.200620 0.556758 0.218073 1.334474 -0.030434 0.362777 1.045544 0.111870 -0.648788 -0.547358 -0.601589 -0.104533
through -0.364417 0.719856 0.735513 -0.040417 -0.018992 -1.188932 0.265633 0.297760 -0.339632 0.358383 -0.040175 -0.164626 -0.707827 -0.462203 -0.262860 1.066670 -1.133476 0.552131 -0.624946 -0.621222 -0.619922 0.611739 -1.244587 0.263466 0.101103 -0.530191 0.025812 -0.620262 0.685568 -0.165512 -0.065347 -0.316857 0.393704 0.262688 -1.180891 0.245669 0.832172 0.829738 0.627455 -0.512571 0.004911 1.384952 1.065038 0.317965 1.041175 0.829757 -0.946557 -0.335815 0.004448 0.079061
sky -0.116157 -0.419837 0.833153 -0.170827 -0.241570 -0.896843 0.326560 0.747201 0.287474 -0.798252 -0.761244 0.700202 -0.471268 -0.642371 0.104268 0.978396 -0.234709 -0.220006 0.628172 -0.123950 -0.205252 0.388905 -0.137114 -0.266312 -0.201997 -0.414366 0.853240 -1.677118 1.579007 -0.441750 -0.297824 -0.934175 -0.582045 0.167265 -0.525477 0.327282 -0.387204 -0.369974 -0.618102 -0.809405 -0.155336 0.974108 0.045221 0.130671 -0.596206 0.377280 -1.445403 -1.065340 -0.206905 0.437229
sun 0.636753 0.165802 0.198263 0.537798 0.359857 -0.420150 0.900165 0.217313 -0.635001 0.245659 0.595451 0.505450 0.703629 -0.820580 -1.000375 1.223999 -0.926422 0.586384 -0.003188 -0.564434 -0.232850 0.383384 -0.650150 -1.636745 0.585252 -1.005753 -0.043431 -1.531750 0.077419 -0.551889 -0.837607 -0.817409 -0.307853 1.016068 -0.093516 0.510473 0.563078 0.849607 0.212654 -0.196270 0.310165 0.249065 0.175543 -0.452510 0.860220 -0.150986 -0.618687 -0.554995 -0.105307 0.174199
but 0.618339 0.560466 0.182815 0.158462 -0.319571 -0.637304 1.051048 0.161572 0.741521 -0.247877 -0.093181 -0.035704 -0.732561 -0.132152 -0.256534 -0.134609 0.530235 0.679198 0.083752 0.005542 -0.530132 -0.327260 -0.033927 -0.926498 -0.598717 0.011184 -0.501585 -0.571277 0.296541 -0.208643 0.652355 -0.162879 -1.774083 -0.091209 -1.486620 0.399762 -0.733988 -0.174261 -1.524320 -0.050014 0.190389 0.276786 0.089708 -0.364987 0.924094 -0.293551 -0.851658 0.306455 0.152949 0.483488
she 0.531047 -0.108887 0.447491 0.091195 0.079412 -0.994205 -0.284341 0.039048 1.063605 -0.882841 -0.367112 0.064503 0.038535 -0.572531 -0.614595 -0.507831 -0.211027 -0.369645 -1.886411 -0.048539 0.535057 0.053669 0.661117 -1.572153 0.888768 -1.496990 -0.718963 0.351205 -0.131350 0.576112 0.549701 -0.854208 -1.599022 -0.146056 -0.580129 0.077272 0.020060 -0.527538 -0.075238 1.276626 -0.555352 0.696956 0.282315 0.174909 0.655469 0.196765 -1.709070 0.363064 0.231930 -0.048724
new -0.567221 -0.895482 -0.295043 0.699171 0.828604 -0.799451 0.594964 -0.119811 -1.586357 -0.862124 0.317312 -0.306981 0.927821 0.293007 0.439914 0.218141 0.687288 0.054730 -0.566261 -0.417967 -0.512820 0.388785 -0.575675 -0.982594 -0.729712 -0.360754 -1.688623 -0.194187 0.808147 0.582258 -0.471245 1.051557 -0.558588 1.338968 -0.498337 0.065213 1.366694 -0.424901 -0.640331 -0.224060 0.208282 0.843499 0.067786 0.397517 0.639421 0.194046 -1.041012 -0.731771 0.463803 0.471670
light 0.931948 0.410714 0.965064 0.642295 1.138899 -0.436233 0.603305 0.527820 -0.484045 -0.420502 -0.149306 -1.300186 -0.164086 -0.587771 0.454461 1.254619 -0.221433 -0.457299 0.327556 -0.563494 -0.659892 -0.169720 -0.338910 -0.875984 -0.451426 0.003080 0.096303 -1.386392 0.422944 -0.357598 -1.045303 -0.635459 -0.424323 0.600676 -0.381578 -0.264028 0.511739 0.261931 0.180827 -0.161080 0.462681 0.652849 0.458955 0.911700 1.269496 0.080492 -0.523933 -0.578298 -0.058947 0.723223
its -0.743979 -0.321451 1.017755 0.086363 0.656615 0.119227 0.932539 -0.341348 -0.035600 -0.129318 0.272526 -0.095432 0.189911 -0.895308 -0.435458 0.472815 0.671527 -0.905164 -1.050327 -1.260784 0.106453 0.517508 -0.873112 -0.892675 -0.099386 -0.545806 -0.395266 -0.534367 -0.470183 0.412924 -0.283615 -0.112551 -1.011011 -0.384506 -0.499669 1.386130 0.752903 1.272610 0.661285 -0.329189 -0.349431 -0.010157 0.939885 0.251588 0.578649 0.126483 -0.001425 -0.387879 -0.637914 0.857895
still -0.256900 -0.056785 0.232911 -0.212721 0.043118 -0.606475 0.676178 -0.062425 0.154447 -0.473496 -0.309581 0.049885 -0.128673 -0.568292 0.518261 0.240324 0.404416 0.360542 -0.034306 -0.048146 -0.310535 -0.358556 -0.526710 -0.346356 -0.552661 -0.580221 -0.509623 -0.747289 -0.686865 -0.140251 0.164072 -0.504544 -1.634644 0.187798 -0.724224 -0.344748 -0.213810 -0.498493 -0.717309 -0.532315 -0.326978 0.008546 -0.462322 -0.403015 0.978496 0.090937 -1.593638 -1.299480 -0.781097 0.747667
our 0.033118 -0.733382 0.283663 0.913116 1.076700 -1.664513 0.684637 -0.474513 0.195787 -0.582919 1.266140 0.647376 -0.927828 -0.064552 -0.017692 0.115384 0.540412 0.559345 0.682802 -1.018237 -0.452087 -0.012054 -0.781781 -0.870801 -0.523782 -0.212092 -0.359763 0.523158 0.195336 0.396540 -0.120256 0.072687 -0.057486 0.229695 -0.144046 -0.169953 -0.195628 -0.602726 0.414797 0.300211 0.355873 0.744680 0.323146 1.105086 0.879200 1.128722 -1.154956 -0.544505 -0.397953 0.130817
just 0.891279 -0.188514 0.034985 -1.045221 -0.110474 -0.420034 1.575073 -0.161159 0.863885 -1.840296 -0.549124 0.223008 0.205130 0.227822 -0.493581 -0.021726 0.549371 0.204058 -0.546686 -0.177107 -0.176559 0.457844 -0.605002 -0.570212 0.218247 -0.359176 -0.389432 -0.060769 -0.112526 -0.644023 -0.084575 -0.180319 -0.554723 -0.169286 -1.160930 -0.674838 0.258744 -0.526845 -1.226454 -0.959310 0.295818 0.264546 0.399848 -0.029170 1.000261 -0.421641 -0.760880 0.190198 -0.205120 1.003423
what -0.336700 0.787979 -0.283533 -0.012730 -0.543708 -0.616046 0.575100 0.736489 0.236386 -0.238447 0.052233 0.840668 -0.446180 0.081682 -0.958289 -0.895895 0.151619 0.210428 -0.974159 -0.531409 0.016156 -0.951718 -0.473867 -1.044363 -0.031446 -0.089576 -0.194046 0.150806 0.129386 0.354009 0.863598 -0.483304 -1.213536 0.336269 -1.203259 0.166285 0.498344 0.275189 -1.036982 -0.497094 0.730299 0.693375 0.184470 -0.043945 1.400901 -0.680054 -1.061191 0.261445 0.835891 0.430941
time 0.866734 -0.239276 0.242835 -0.176108 0.753829 -0.777426 0.639591 -0.383029 0.649237 -0.379587 0.595922 0.559991 -0.034385 -0.435334 -1.253842 -0.102941 0.306310 -0.564400 -0.537287 -0.102235 -0.831662 0.626236 -0.631518 -0.703468 -0.012718 -0.646313 -0.274624 -0.090513 0.239603 -0.563609 -0.918215 -0.281168 -0.836681 -0.378798 -1.457177 -0.402758 0.442972 -0.418220 -0.279666 -0.875726 0.835278 0.416626 0.355407 0.237339 1.000096 -0.310541 -0.440381 0.151160 -0.191508 -0.202852
last 0.358953 -0.239062 0.446610 0.148856 1.163089 -0.877682 0.977891 -0.028559 -0.054641 -0.116879 0.352791 -0.175132 -0.210421 -0.455653 0.088340 0.496039 0.149713 -1.197513 -0.287597 -0.327013 -0.718763 0.275753 -0.449638 -0.923407 -0.577499 -0.201539 -0.592980 -0.519673 0.201977 -0.207111 -1.067432 -0.339410 -0.998507 0.443559 -0.855260 -0.465307 0.110479 0.073108 -0.273864 -0.463673 0.493960 0.212687 -0.472296 0.836912 0.437388 -0.613712 -1.009929 -0.200847 -0.811518 -0.503491
like -0.316712 0.085697 0.669037 -0.620850 -0.119472 -0.554279 1.669435 -0.384099 0.168727 -0.255377 -0.763321 -0.262675 -0.237497 0.041725 -0.425114 0.379242 0.211611 0.908922 -0.549096 0.194564 -0.686448 0.519183 -0.837090 0.140469 -0.142776 -0.444772 -0.792426 -0.428241 -0.309238 -0.379108 0.382548 0.129510 -0.595494 -0.015931 -1.073918 0.200585 0.776596 0.290531 -1.121848 -0.083753 0.155743 1.044975 -0.473730 -0.737093 0.693149 -0.162873 -0.795376 -0.562816 -0.304037 0.725409
white -0.227964 -0.759434 0.793373 0.951549 0.081185 0.211575 0.742204 0.883952 -0.064788 -1.775841 -0.310778 -0.430841 -1.057706 -0.197060 0.517019 0.438949 0.078643 -0.909289 -0.434297 -0.569375 0.164881 0.371510 -0.114943 -0.024792 -0.229044 -0.719455 0.266165 -0.619556 0.740800 -0.063731 -0.592161 -0.377748 -1.155951 1.028433 0.094560 0.665260 0.706849 -0.493388 0.480341 -0.543259 -0.015395 0.141699 0.185527 0.156634 0.015608 0.848459 -0.133312 -0.538232 -0.382979 0.925601
love 0.264559 0.040544 0.473597 -0.179192 -0.143239 -1.372784 0.946457 -0.970571 0.504652 -0.303226 1.456112 -0.202125 -0.440608 -0.706036 0.021573 0.191603 1.268608 0.414371 -0.885637 -0.293434 -0.078104 -0.756662 -0.446596 -0.524608 -0.624382 -0.294416 -1.321366 0.164272 -0.567982 -0.421271 0.480834 -0.044138 -0.977310 -0.438938 -0.455582 -0.464153 0.348533 -0.583484 -0.873720 0.088166 0.573171 0.815180 0.181499 0.096099 0.744486 -0.197491 -0.824124 -0.898470 0.158952 0.192719
cold 0.559542 -0.321888 0.309518 -0.042755 -0.026229 -0.774699 0.352797 -0.259597 0.391347 -0.215283 -0.595668 -0.584409 -0.402965 -0.856002 -0.428037 1.286098 -0.107468 0.006380 0.684399 0.441256 -0.200040 0.811995 -1.232887 -0.386711 -0.123849 -1.233881 -0.338091 -0.855554 1.328775 -0.386627 0.147736 0.293845 -0.928318 0.010112 -0.494085 0.315378 -0.757283 0.333671 0.250023 0.657039 -0.283798 0.895571 0.324214 -0.836061 0.961595 -0.132041 -0.756203 -0.220277 -0.509443 -0.221344
now 0.560840 0.606817 -0.092792 -0.241659 -0.252539 -0.499163 0.961473 0.018088 0.418747 -0.798331 0.010818 -0.496645 -0.740270 0.008309 -0.615998 -0.116801 0.143942 0.396511 -0.444213 -0.025357 -0.165361 -0.086765 -0.768603 -0.446011 -0.121865 0.039480 -0.107325 -0.158756 0.267618 -0.322109 0.214817 0.002447 -1.207926 -0.136026 -1.208906 0.060471 0.230557 -0.310795 -0.781678 -0.881331 0.385454 0.262631 0.339825 -0.296493 1.085197 -0.242033 -0.724308 0.174662 0.151880 0.288489
over -0.615011 0.305016 -0.536584 0.033522 0.398189 -0.447230 0.676480 0.984838 -0.005840 -0.033101 -0.180982 0.687571 0.148529 0.162765 -0.880957 0.162611 -0.582226 0.218193 0.288061 -0.813546 0.197917 -0.329523 -0.383027 -0.506496 0.492823 -0.270647 -0.299904 0.015151 0.443440 -0.245948 -0.169106 -0.516841 -0.417847 0.338026 -0.545403 0.439013 0.217382 0.223387 0.326995 -0.849131 -0.387696 0.822217 0.280426 0.366193 0.109110 0.766573 -0.999853 -0.799062 -0.797427 0.537425
down 0.582180 0.143954 0.805062 0.544080 -0.907872 0.073726 0.911172 0.694343 -0.322308 0.161936 -0.252312 0.743709 0.176959 0.140092 -1.067380 0.682272 -0.299641 -0.659615 -0.658941 -0.002314 1.235536 1.022674 -0.553644 -0.558024 0.043079 0.420912 -1.236420 -0.065327 0.425714 -0.851730 -0.094258 -1.304375 0.424678 -0.020360 -2.267034 -0.151230 0.155562 0.748986 0.344885 -0.260818 -0.010247 0.191098 -0.637048 -0.406645 0.044574 0.340689 -0.626245 -0.130714 -0.166743 0.420609
life 1.020159 0.393038 0.014873 0.142953 -0.355598 -0.896400 0.413015 0.082997 -0.340945 0.003595 0.573334 -0.416023 -0.465655 -0.310540 -0.981493 -0.262511 0.753904 -0.313304 0.028310 0.471078 -0.137210 0.205373 -0.488414 -0.483077 -0.834377 0.244012 -0.160050 0.314158 -0.217724 0.007295 -0.420795 0.628116 -1.213657 0.007194 -1.183903 0.399356 0.536295 -0.532616 -0.788939 -0.768640 0.432528 -0.575495 0.741862 -0.875816 0.298852 -0.060976 -0.973896 -0.416067 0.775198 0.552262
between -0.430727 -0.167583 -0.337720 0.548814 -0.295255 -0.423312 0.235040 0.132870 1.214969 -0.494530 0.710340 0.792831 -0.671232 -0.000969 -0.193421 0.749584 0.645362 0.204139 0.521474 -0.946280 0.215318 -0.228197 -0.917153 -0.006373 0.462557 -0.580971 0.301035 0.480300 1.163738 -0.538150 0.352529 -0.197373 0.348743 0.109414 -0.001071 0.320389 0.319420 -0.591553 0.703738 -0.845275 -0.049886 0.341194 0.112495 0.628742 0.329967 1.089027 -0.829019 -0.662273 -0.617992 -0.569612
long 0.456999 -0.073872 -0.776904 -0.095587 -0.007531 -0.495245 0.461779 -0.064853 0.745545 -1.326525 1.054496 -0.450958 -0.099208 -0.875824 -0.614165 1.481965 0.225550 -0.095694 -0.536667 -0.585191 -0.399424 0.116968 -0.763649 -1.127995 0.213479 -0.640675 -0.990582 -0.475383 0.458092 -0.748446 0.092704 -0.828445 -0.095902 -0.443737 -0.427330 -0.007219 0.482239 0.155662 0.795513 -0.410638 0.834382 -0.266257 1.227675 0.705681 -0.157240 0.243759 -0.469980 0.075115 -0.199981 -0.710881
clouds -0.235738 0.624767 0.140789 0.641716 -0.566347 -0.431426 0.814508 1.315577 0.425899 -0.301329 -0.676197 0.733557 -0.561424 -0.773779 0.152275 1.282843 -0.778502 0.354419 0.787808 -0.370835 -0.863901 0.525870 0.109837 0.224468 0.300507 -1.084225 0.240497 -0.811673 1.492772 -0.298948 -0.185921 -0.554265 -0.270810 0.083450 -0.377253 0.346829 0.846666 0.315482 0.034961 -0.041584 0.173148 0.517219 -0.330845 -0.131859 0.424612 0.843640 -0.519164 -0.132467 0.214656 0.811589
back 0.129509 -0.461302 -0.243389 0.831750 -0.429084 -0.278229 0.767266 -0.219267 0.503627 -0.153906 0.230454 0.096673 -1.257443 -0.177580 -0.878978 0.999435 0.411697 0.298161 -0.730067 -0.789668 0.596360 0.432933 -0.061033 -1.191181 0.979383 0.466047 -1.018867 0.519150 0.084749 -0.235391 -0.347913 -0.342825 0.053679 -0.343219 -0.941140 0.397644 0.490357 0.854372 -0.365921 0.455561 0.193874 0.318783 0.524190 -0.868132 -0.272758 -0.155309 -1.631823 0.091130 0.148541 0.541002
can 0.742547 0.548423 -0.538657 -0.255247 -0.052480 -1.119444 0.857294 0.072467 0.268660 -0.778307 0.112247 -0.664799 -0.789934 -0.313174 -0.232273 0.240709 0.722607 0.117379 0.337255 -0.296547 -0.886112 -0.162147 0.086828 -0.042046 -0.966370 0.086186 -0.625409 -0.214757 -0.913362 -0.258161 0.412305 -0.235905 -1.401394 -0.070869 -1.711587 -0.277083 -0.439668 -0.073144 -1.128765 0.005112 0.191240 -0.573515 0.307058 -0.966534 0.703793 -0.026793 -0.435551 -0.379597 0.064343 0.452269
have 0.464996 0.316404 -0.556140 0.516756 -0.495198 -0.094485 0.754064 0.502742 1.272002 -0.424401 0.388764 0.104328 -0.025096 0.357084 -0.672157 -0.305234 -0.051460 0.325567 -0.559776 -0.295416 -1.009764 -0.483423 -0.093160 -1.336290 -0.680611 0.248182 -0.453065 -0.642070 0.547002 -0.883322 0.640089 -0.173074 -0.842982 -0.232948 -0.577776 0.281462 -0.266492 0.097881 -0.841757 -0.733202 -0.170127 0.530793 1.054161 0.606828 0.693757 -0.044870 -1.049036 0.744612 0.810608 0.359230
they 0.861429 0.497723 0.656922 0.141183 -0.152466 -0.402001 0.775697 0.447329 1.155981 -0.512705 -0.227426 -0.005841 -0.646701 0.450672 0.031696 -0.016169 0.482281 0.894081 0.763844 -0.212755 -0.635664 -0.733805 0.212810 -0.514880 -0.124207 0.139826 -1.428543 -0.171912 0.194232 -0.810548 1.056699 -0.510144 -0.135103 -0.001673 -1.245594 -0.199432 -0.067391 -0.220671 -1.399250 0.193612 -0.038590 -0.090401 0.016110 -0.281494 1.196677 -0.518455 -0.840993 0.667738 0.106761 1.377639
blue -0.293436 -0.392938 0.701536 -0.074146 -0.151882 -0.748497 0.718782 0.656487 -0.616082 -0.567675 -0.311533 0.308047 -0.207827 -0.121474 0.859950 1.655496 -0.549515 0.344924 0.015667 -0.177048 0.259271 0.634654 -0.517369 -0.442564 -0.915319 -0.159413 0.562692 -1.296026 0.896819 0.013174 0.203961 -1.160888 -0.887281 -0.025886 0.321309 0.103450 0.087920 -0.338182 -0.243639 -0.143745 0.275455 1.084482 -0.658067 0.572251 -0.532726 0.643339 -0.589285 -1.349590 0.256923 0.670678
when 1.407289 0.082410 0.193211 0.154143 -0.555237 -0.121429 0.799870 0.630449 0.392038 0.017127 0.024189 0.326326 0.076653 0.137934 -0.746935 -0.551079 0.406508 -0.362351 -0.089073 -0.346246 0.916319 -0.368533 -0.373464 -1.267072 -0.428434 -0.031537 -1.140787 -0.244996 -0.163081 -0.850502 0.496998 -0.706473 -0.459095 0.235730 -1.743052 -0.716347 -0.465522 0.104140 -0.452068 0.430081 0.019099 -0.113155 -0.482906 -0.336620 1.328910 -0.219019 -0.854376 -0.048866 0.312094 0.760954
will 0.716179 0.448707 -0.000283 0.353755 0.203592 -1.046138 0.509275 -0.235212 0.332720 -0.074044 0.698994 -0.082425 -0.661984 0.633954 -0.508699 0.073923 0.243835 0.366400 0.265954 -0.699967 -0.354501 -0.472177 0.050684 -1.087617 -0.269405 0.618169 -1.278697 -0.104767 0.014897 -0.755847 -0.203508 -0.069742 -0.406324 -0.421924 -1.864190 -0.185203 0.214054 0.401761 -1.574200 -0.199864 0.613405 0.310397 -0.206087 -0.489988 0.693364 -0.295085 -0.431380 0.219260 0.323558 0.158776
evening 0.445615 0.453170 -0.134812 -0.352455 0.128300 -1.287685 0.098178 -0.337115 -0.726679 -0.389780 -0.380623 -0.234037 -0.327033 -1.105082 -0.514445 1.255880 -0.292979 -0.460747 0.287425 -0.417165 -0.573364 -0.449904 -0.488945 0.170051 0.142274 -0.622494 -0.496311 -0.508041 0.873241 -0.050015 -0.071231 -0.162228 -0.011091 0.699125 -0.070113 0.089430 -0.290580 0.088811 0.765989 0.266823 -0.022459 0.611240 0.220145 0.306260 0.749619 -0.229183 -0.844980 -0.738919 -0.047534 -0.987333
more 0.235658 0.945197 0.029833 -0.412660 -0.025055 -0.483674 1.666283 0.111010 0.732124 -1.356413 -0.751718 -0.313249 -0.297517 -0.116281 -0.563391 0.039150 0.707388 -0.644725 0.005912 0.266166 -0.883180 -0.584171 -0.503654 -0.239712 0.371722 0.433853 0.033710 -0.303401 0.466770 0.135546 -0.604490 0.121054 -1.716478 -0.009463 -0.612230 0.484992 0.233315 -0.735637 -0.640022 -0.635743 -0.342940 0.119375 -0.550459 0.115122 0.144000 -0.541382 -0.849121 -0.019010 0.235955 -0.280049
tree 0.453112 -0.698187 0.321461 0.563170 0.469529 0.227016 -0.502724 -0.138735 -0.507240 -0.255217 -0.035202 -0.704668 -0.078038 0.439787 -0.105241 0.171745 0.978743 -0.281485 -0.502579 -0.846454 -0.162086 -0.534561 -0.497144 -1.120734 -0.813257 0.022460 -0.308094 -0.773310 0.036724 -0.734608 0.423508 0.159969 0.405873 1.421079 -1.669954 0.429292 -0.254645 0.834487 0.314831 -1.316995 -0.372177 -0.420452 0.342535 0.664826 0.188879 -0.334004 0.139535 -0.669959 -2.019453 0.459149
after -0.092809 -0.534168 -0.264067 -0.385074 -0.381219 -0.294963 0.302405 -0.311227 0.466647 -1.370959 0.139780 0.584846 0.557302 -0.832918 0.355432 0.824740 0.362319 -0.359762 0.073304 -0.131697 0.033480 0.076414 -0.837620 -0.238304 0.305133 -0.955641 -0.980041 -0.638195 0.863575 -0.499087 -0.586315 0.091333 -0.449247 -0.321590 0.076686 -0.211338 0.039962 0.249739 0.376177 -0.271495 0.582883 0.279618 0.150747 0.232152 0.115934 -0.532345 -1.013866 -0.182270 -0.423921 0.082314
red 0.454130 0.587234 1.310446 0.439118 0.625307 -0.322134 0.553435 0.942522 -0.166163 0.149144 0.509300 -0.458164 0.544679 -0.414929 0.480607 0.474905 -0.397916 -0.875750 0.189025 -0.315122 -0.058510 -0.244626 0.055921 -0.359258 -0.260509 -0.163521 0.770184 -0.574206 -0.798535 -0.618816 -0.577426 -0.996570 -0.515748 1.016203 0.358060 0.754232 0.972361 -0.900154 -0.260887 -1.329549 0.145671 0.196333 0.062198 -0.227865 0.053338 0.342609 -0.994462 -0.739785 -0.771932 0.168317
home 0.012935 -0.627141 -1.194029 -0.067620 0.531887 -0.882502 -0.440337 -0.761753 0.291881 -0.061557 0.225904 -0.589566 -0.381108 -0.424449 -1.271145 0.261859 0.118914 0.299306 0.195636 -0.613094 -0.261180 -0.728532 0.042238 -0.874672 0.225780 0.580182 -1.370348 -0.223360 0.992079 -0.153465 -0.306716 -0.052016 0.026176 -0.716935 -0.934861 -0.100915 -0.071083 0.949276 -0.173315 0.392843 -0.396972 0.165168 0.633288 0.472944 0.362459 0.471613 -1.798998 -0.015714 0.367411 0.142740
their 0.458465 -0.567071 0.609143 0.829808 0.937154 -0.545571 0.719965 -0.017941 0.746690 -0.314691 0.625381 -0.308254 -0.540546 0.440396 -0.296064 0.569110 -0.038861 -0.025955 0.971715 -1.444891 -0.367299 0.024947 -0.547585 -0.723695 -0.306563 0.423532 -0.548254 -0.107852 0.117514 -0.656688 -0.099835 -0.117888 0.406250 -0.327337 -0.103109 0.430394 0.073427 0.323570 -0.380862 0.048002 0.126187 0.452586 0.727955 0.125116 0.478474 0.808203 -0.510968 0.499341 -0.251397 0.391446
was 1.430433 0.116308 0.072665 -0.118907 -0.704447 -0.248119 0.271247 0.657097 0.969081 -0.406055 -0.155530 -0.246325 -0.351085 -0.864458 -1.219993 -1.076386 0.731871 0.068985 -0.681598 -0.389722 0.553349 -0.500961 -0.876869 -0.911705 -0.149235 -0.732943 0.441207 -0.071005 0.555805 -0.306633 0.223778 -0.036560 -0.769996 0.346774 -0.828175 -0.186554 -0.068296 -0.462903 -0.302490 0.534363 0.378249 0.941005 1.046222 0.314309 0.733721 -0.055264 -0.608011 -0.179616 0.579497 0.530669
dog 0.477658 -0.626079 0.382454 -0.624845 0.179054 0.191283 0.342597 -0.868313 -0.771109 -0.986164 -0.234755 -0.596098 -0.072344 -0.673756 -0.475778 -0.183439 0.532496 -0.499710 -0.199509 -1.081402 1.264436 -0.146769 -0.618183 -0.585339 0.006293 -0.242756 -1.153115 0.201993 -0.226485 0.570247 0.003655 -0.166568 0.102399 0.186322 -0.437503 0.479685 0.238627 -0.183629 0.819624 0.188904 -0.360739 -0.030512 0.131900 0.729850 0.439365 1.100814 -0.689270 -0.707760 0.305642 0.500331
end -0.100031 0.631684 -1.457327 0.138165 0.119178 -0.524372 0.546477 0.663153 -0.381669 -0.180980 -0.107109 0.055340 0.049519 -0.502945 0.100938 0.703069 0.814291 -0.479695 -0.469325 -0.949422 -0.636787 -0.095616 0.272469 -0.676152 -0.290854 0.033411 -1.305178 -0.415658 0.532202 -0.238693 -0.634511 -0.614085 -0.280505 0.628323 -0.644890 0.045185 0.716709 0.277651 -0.311783 -0.224119 0.199495 -0.126599 0.036532 0.260443 0.061605 -0.217926 -0.916321 -0.378218 -0.270336 -0.059095
shadow 0.136637 -0.859579 0.086577 0.546952 0.587422 0.361277 0.747898 0.001269 -0.236709 -0.353070 0.570040 -0.212120 -0.043877 -0.441602 -0.408878 0.878114 0.230317 -0.023125 -0.822311 -1.074299 0.300176 0.311605 -0.720905 -1.205572 0.102143 -0.525119 -0.003694 -1.058201 -0.317402 -0.233493 -0.513368 -0.181068 -0.082418 0.157001 -0.303574 0.722835 0.719086 0.874114 0.894325 -0.897885 -0.166089 -0.240079 0.896521 0.531093 -0.276334 0.159483 0.473162 -0.358250 -1.043502 0.832897
there 0.872530 0.730806 0.254164 -0.176970 -0.427514 -0.035506 0.795096 0.695167 0.837666 -0.489814 -0.373428 -0.835763 -0.695446 -0.298490 -0.609360 -0.912961 0.822451 0.281918 -0.080261 -0.360749 0.588542 -1.200289 -0.736482 -0.649557 0.253201 0.295399 0.548231 -0.135312 0.208582 -0.308920 0.294343 -0.586763 -1.189702 0.034265 -1.313914 0.517066 0.514530 -1.117767 -0.737779 -0.534868 0.253475 0.638316 0.080558 0.211711 1.055790 0.012729 -1.014871 -0.507882 -0.115504 0.665407
window 0.274147 -0.398039 0.105057 -0.159089 -0.136692 -0.368343 -0.412122 0.163487 -0.208399 -0.975830 -0.429894 -0.589365 -1.087524 0.430450 0.106333 0.387249 -1.249145 0.030826 -0.725510 -0.173179 0.447990 1.170742 -0.905279 -0.225214 0.660213 -0.983489 0.266800 -0.610858 0.631741 -0.308778 -0.256341 0.071503 0.098629 0.609239 -1.017019 -0.810537 -0.378351 0.576947 0.532379 -0.030188 -0.470523 0.867800 0.776790 0.336726 0.560423 0.282808 -0.682654 0.093703 0.370935 -0.373759
sound -0.568852 -0.258103 0.160369 -0.342975 -0.173068 -0.287696 -0.063795 -0.190220 -0.024744 -0.433684 -0.377821 0.103955 -0.511005 -0.437320 -0.268652 0.295624 0.352681 0.080161 0.107216 -0.255393 -0.340057 -0.003207 -0.517704 0.786459 -0.225930 -0.729443 -0.428835 -0.303661 0.185944 -0.378119 0.111411 -0.609689 -0.008080 0.205129 -0.599531 0.214333 0.219799 0.474785 -0.128090 0.127256 -0.335110 0.380720 0.201013 -0.314079 0.204658 0.319352 -0.965049 -0.844131 -0.951515 0.279671
only 0.451390 0.534690 -0.662527 0.059671 -0.037222 -0.441570 0.761215 0.534321 0.110494 -0.542725 0.105666 -0.701217 -0.768098 -0.177904 -0.194102 0.158568 0.500563 -0.378499 -0.062054 -0.894814 -0.110843 -0.498451 -0.121737 -0.717482 -0.513116 0.007348 -0.305023 -0.368774 0.078315 -0.337302 0.165366 -0.354085 -0.957906 0.298775 -0.816222 0.254652 0.636545 -0.076496 -0.437184 -0.476581 -0.002766 -0.063079 -0.058379 0.238680 1.198928 0.018933 -0.477990 -0.023026 -0.168203 0.494894
river -0.541227 0.005165 -0.866261 -0.364592 -0.486192 0.252787 -0.249784 0.013415 -0.004966 -0.132707 -0.665178 0.822972 -0.668407 -0.457070 -0.738171 0.588885 0.146177 0.305046 0.021964 -0.771245 -0.069183 1.128410 -0.290312 0.731095 0.114153 -0.753325 -0.168101 -0.341172 0.810103 -0.712755 0.062288 -0.615854 -0.015976 0.548760 -0.544331 0.232630 0.078878 0.070402 0.530223 -0.480885 -0.552287 0.433103 -0.073556 0.307554 0.307265 0.462553 -1.067418 -0.594902 -0.382450 0.150973
way 0.425847 -0.133376 -0.333658 -0.037072 0.749827 -0.319494 0.079841 -0.171584 0.316130 -0.117175 0.030529 0.458488 -0.608454 0.074898 -1.263427 0.347622 0.781927 -0.215609 -0.200011 -1.044258 -0.227737 0.879104 -0.089589 -1.034570 -0.178265 0.070893 -0.411738 -0.027102 0.497018 0.338525 -0.256814 -0.483997 -0.397236 -0.463352 -1.539314 0.647275 0.714007 0.447460 -0.247345 0.022695 0.158517 0.201948 1.294495 0.588141 0.885953 0.302805 -1.221459 0.216773 0.387953 0.650289
two 0.077681 -0.146256 -0.472134 0.084685 0.072941 -0.051635 1.220624 -0.154956 0.190250 -1.474317 -0.100019 0.222307 -0.513533 0.641807 0.055926 0.228949 0.643245 0.057808 0.552881 -0.673168 0.088878 0.354299 -0.323935 0.086294 -0.167350 -0.084069 0.051260 0.357962 0.848017 -0.850550 -0.002678 0.280677 -0.213425 0.813585 0.469042 0.634462 0.330325 -0.937506 0.251443 -1.317934 0.222679 0.460601 -0.064196 0.474920 0.564782 0.816910 -0.498080 -0.346787 -0.573204 -0.441043
stars -0.297516 0.178004 0.455082 -0.269120 0.106906 -0.101896 0.777210 0.516205 0.271637 -0.775982 -0.453339 -0.204251 -0.867725 -0.438705 -0.355029 0.628887 0.016943 0.066915 0.686298 -0.288273 -0.342284 0.023279 -0.165618 -0.099360 -0.091408 -0.361375 0.148765 -0.930236 1.174188 -0.156627 -0.174856 -1.139426 0.016450 0.068895 -0.422178 -0.076499 -0.224623 0.211396 -0.376665 -0.061928 0.438914 -0.137404 -0.004740 1.373764 0.434623 0.157525 -0.913573 -0.140258 -0.349680 0.373554
eyes -0.071929 -0.202838 0.623339 0.026192 0.404341 -0.388587 1.251260 0.286835 0.502347 -0.732611 0.382983 -0.040017 -0.763740 0.104643 -0.047062 0.434131 -0.936133 0.725282 0.293542 -0.510642 0.794072 0.553996 -1.045978 -0.384238 -0.592723 -0.417609 -0.476649 -0.443931 -0.275300 -0.028627 0.526343 -0.724141 -0.723755 -0.252974 -0.019030 -0.363527 -0.295047 -0.097002 0.035802 0.699357 -0.172840 0.562533 0.204589 -0.006581 0.493905 0.982662 -0.445299 -0.437506 0.385697 0.798032
where 0.430016 0.149766 0.012947 0.269044 -0.241033 0.353176 0.182609 0.573747 0.751188 -0.444541 -0.474771 0.264029 -0.603804 0.025430 -0.503309 -0.777344 0.530371 0.423437 -0.642417 -0.945531 0.569912 -0.751182 -0.467049 -0.943214 0.392095 0.227523 -0.418612 -0.388985 0.623916 -0.245790 0.356067 -0.531695 -0.314076 0.299019 -1.225771 0.168828 0.209124 0.247439 0.150197 -0.046669 0.096883 0.494488 0.214300 0.389571 0.835315 0.180612 -0.652027 -0.393446 0.004281 0.971350
water -0.773786 0.259032 -0.168331 -0.500516 0.164871 -0.390238 0.747403 0.578465 0.097041 -0.604142 -1.354420 -0.312617 -0.527789 -0.057170 -0.268054 0.730384 0.000192 0.276657 -0.162527 -0.128589 -0.690722 0.181822 -0.312801 0.553738 0.129649 -0.466102 -0.547739 -0.657863 -0.071743 -0.389749 -0.255342 -0.700632 -0.462026 0.412692 -0.948636 0.218568 0.231906 0.408860 -0.320235 -0.147208 -0.626513 0.636550 -0.633920 -0.556900 -0.097063 0.268149 -0.021757 -0.957165 -1.193349 0.534777
too 1.499996 0.653877 -0.179307 -0.592865 -0.300873 -0.621763 0.312364 -0.560573 0.922150 -0.882439 0.347325 -0.842877 -0.237118 -0.795942 -1.319236 0.753497 -0.729580 -0.024363 0.285751 -0.084201 -0.669365 0.687741 -0.185145 -0.528351 -0.675375 -0.640122 -0.143757 -0.907850 0.199661 -0.825907 0.219231 -0.548722 -1.077391 -0.387531 -0.457323 0.499773 0.008782 -0.032056 -0.780264 -0.294046 0.655707 -0.119213 0.584024 -0.390426 0.241418 0.426637 -0.654156 -0.076860 0.598429 -0.564989
how 1.022734 0.496780 -0.316592 -0.387573 -0.788037 -0.476471 0.302233 -0.233248 0.442405 -0.498787 0.345797 0.297615 0.023748 -0.912404 -0.540456 0.274362 0.421601 0.068515 -0.339174 -0.339963 -0.759973 0.181638 -0.277244 -0.392959 -0.892341 -0.463542 -0.542329 -0.461622 -0.374690 -0.265008 0.767174 -0.386163 -1.115110 -0.011822 -0.833398 0.129762 0.048504 -0.079219 -0.788499 0.666123 0.973072 -0.178318 -0.080332 -0.382416 0.560268 -0.169453 -1.131479 0.090145 0.603771 -0.017419
scent -0.639378 -0.347804 0.885908 0.067099 0.341730 0.146887 -0.571064 -0.214856 -0.041931 0.184343 0.244227 0.080036 0.536803 -0.613541 0.043277 0.523769 -0.188227 -0.495691 0.680739 0.041198 -0.034537 -0.007081 -0.288278 -0.159630 0.162139 -0.904077 -0.444470 -0.173111 -0.324878 -0.334494 -0.399049 -0.170237 0.020999 0.644226 0.115488 0.559409 0.148361 0.001607 -0.030957 -0.312398 -1.512417 -0.323621 0.405673 -0.497489 0.335195 0.330997 -1.314236 -0.845188 -0.459406 0.182598
away -0.013954 0.213858 0.832828 0.009654 -0.108437 0.504599 0.999552 0.002744 0.065998 0.283290 0.085149 -0.845867 -0.658724 -0.514360 -1.024801 0.422904 -0.798092 0.113771 -0.073922 -0.558587 -0.597155 -0.233676 0.069289 -0.406327 0.962441 0.107374 -1.414073 -0.445439 -0.004759 -0.964565 -0.620956 -0.407873 -0.648498 -0.689864 -1.633200 0.463644 0.046737 0.851742 -0.934371 0.015290 0.323781 -0.435678 -0.321853 -0.196720 -0.423332 0.223006 -0.376836 0.249041 -0.059366 0.120010
again 0.318530 0.322285 -0.540394 -0.059927 -0.209662 -0.716652 0.368914 -0.027962 0.809220 0.073336 0.185993 -0.279995 -0.265819 -0.708070 -0.569235 -0.079560 -0.015962 0.020750 -0.144134 0.169990 0.151639 -0.346317 -0.874365 -0.596889 0.643724 -0.360159 -0.965034 0.657445 0.440305 -0.638269 -0.326419 0.569586 -0.655200 -0.445574 -0.776230 -0.257186 0.128191 0.043009 -0.479987 -0.141625 0.119383 0.701476 0.015700 -0.724664 0.182465 -0.217261 -1.685374 -0.483369 -0.202564 -0.248170
another 0.455977 -0.402601 -0.139204 -0.058132 0.001134 -0.567542 0.592257 0.137176 -0.468265 -0.675553 -0.054213 -0.700556 -0.429260 -0.580595 -0.159749 0.443294 0.376901 -0.847800 -0.879314 -0.052325 0.167777 -0.009257 -0.428870 -0.723411 0.651849 -0.268618 -0.658081 0.024572 0.544421 0.016960 -0.941537 0.693474 -0.322826 0.125068 -1.007191 -0.332331 0.490965 0.026777 0.130861 -0.774890 0.309715 -0.173010 -0.090355 0.043348 -0.182316 -0.212849 -0.250345 -0.183223 -0.289119 -0.268153
dark 0.533134 0.278455 0.079217 -0.095240 -0.053018 0.258425 0.601119 0.360221 0.302278 -0.595353 -0.542054 -0.590566 -0.721840 -0.650252 -0.090359 0.902737 -0.112885 0.106641 0.276405 -0.499093 -0.007274 0.549348 -0.594563 -0.202881 -0.418897 -0.824509 -0.100830 -0.990928 0.826937 -0.617481 -0.189368 -0.442336 -0.890584 -0.178887 -0.327042 0.191958 0.200410 0.112447 0.352022 0.152335 0.298074 0.323072 0.165889 0.140827 0.637422 1.010880 0.115996 -0.582649 0.036557 0.457947
full -0.278541 -0.189825 -0.717569 -0.368446 0.373013 -0.507527 0.259749 0.226752 -0.324368 -0.383532 -0.321869 -0.403243 -0.437445 -0.170472 0.219446 0.364898 0.118069 0.240924 0.447476 -0.100059 0.164911 0.449135 -0.011480 -1.109358 -0.549103 -0.678972 0.330435 -0.616512 0.542212 0.101592 -0.009354 -0.156828 -0.763090 0.346681 -0.505662 0.207039 -0.204381 -0.035490 -0.375970 -0.758796 -0.720963 -0.812222 -0.148683 0.894717 0.402484 0.479224 -0.588059 -0.189587 -0.579249 0.590483
under -0.303714 -0.443046 0.144302 0.188029 0.594548 -0.487468 0.192949 0.536742 0.098417 -0.115604 -0.208506 -0.501369 -0.426870 -0.087842 0.115554 0.461717 -0.015984 -0.069718 0.446184 -0.479005 -0.032655 0.354682 -0.133603 -0.516615 -0.551140 -0.479596 0.075725 -0.556086 0.237177 -0.246260 -0.298345 -0.374831 -0.151348 0.396426 -0.757996 0.053944 0.122028 0.146110 -0.369727 -0.388911 -0.625030 0.310561 0.153228 0.279707 0.129791 0.582790 -0.630464 -0.931528 -0.849302 0.657878
empty -0.246283 0.125207 -0.588708 -1.190719 0.679951 -1.010553 -0.357451 -0.387613 -0.632053 -0.817581 -0.501831 -0.569040 -0.687710 0.343619 0.182644 0.728199 -0.356436 -0.465960 -0.228817 -1.119769 0.504868 0.595975 -0.889800 -0.153585 0.017855 -0.050712 0.086632 -0.774642 0.056706 0.298593 -0.202595 -0.064418 -0.952889 -0.613434 -0.947354 0.642109 -0.161327 0.388569 0.548053 -0.824765 -0.694844 -0.026117 0.321532 -0.046473 0.712595 0.782158 0.150803 -0.660779 0.063430 -0.366418
off 0.243005 0.620640 0.492649 -0.214503 0.061977 -0.112891 0.556181 -0.103617 -0.275473 0.397760 -0.467976 0.881494 -0.282444 -0.466485 -0.962355 -0.132598 -0.204498 0.185985 -0.236143 -0.353786 -0.016029 0.469263 -0.085008 -0.343638 0.769313 -0.282418 -0.929240 -0.025296 -0.437889 0.342125 -0.310983 -0.818934 -0.347045 0.086502 -1.143934 0.556637 0.088903 0.601993 0.168390 0.160276 -0.388715 -0.458147 0.073226 -0.816211 0.417421 0.288593 -1.031666 -0.264025 -0.006829 0.850707
year -0.067485 -0.070409 -0.327815 0.240868 0.600808 -0.766247 0.620069 0.066905 -1.222144 -0.546851 0.090529 -0.064633 0.948429 -0.000948 0.354293 0.497426 0.915187 -0.967709 -0.709233 -0.056448 -0.585437 -0.102544 -0.076434 -0.537098 -0.336127 0.066798 -1.808025 -0.314209 0.727598 0.220746 -1.189854 0.685200 -0.637612 0.875541 -0.927132 -0.265630 0.947256 -0.207478 -0.482166 -0.547331 0.871883 0.524738 -0.328088 0.406334 0.085495 -0.969512 -0.606759 -0.411250 -0.078785 -0.278956
haiku 0.363411 0.792697 0.060759 0.017488 -0.002787 -0.750579 1.266491 0.640676 -0.544677 -0.397611 -0.450131 -0.006609 0.142138 0.351885 -0.351106 -0.004941 0.823504 -0.230683 -0.067225 0.292373 -0.028420 -0.150648 -0.300263 0.028009 -0.387728 0.319331 -0.458352 1.048376 0.792647 0.418650 0.315672 1.091704 -0.170326 0.508140 -0.840476 -0.544643 0.119336 -0.287178 -0.489218 -0.095707 1.339396 0.678019 -0.113333 -0.416972 1.108927 -0.411154 -0.615051 0.076230 0.570534 -0.433817
fall 0.645986 1.383446 1.580543 0.422179 0.491991 -0.595774 0.844419 0.447192 -0.090543 0.458753 0.500402 -0.235856 0.382010 -0.917755 0.398091 1.113763 -0.028141 -0.273080 0.415064 0.185256 -0.896878 -0.428142 -0.389039 -0.263996 -0.484661 0.511625 -1.239401 -0.043869 -0.144454 -0.497298 -0.394809 -1.287906 0.217170 0.521367 -0.858301 -0.073099 0.172542 -0.584147 -0.052590 -0.149043 0.424672 0.490019 -0.309710 0.386114 0.407087 -0.348630 -0.971184 -0.405478 -0.470175 0.309820
each 0.196208 -0.065486 0.097159 0.424421 0.695666 -0.200779 1.533159 -0.093607 -0.232035 -0.277250 0.137621 0.686109 -0.092509 -0.008023 0.156498 0.168972 0.996178 -0.156986 0.382206 -0.729407 -0.374916 0.610086 -0.884034 -0.217329 0.347039 0.234787 -0.150766 -0.119560 0.175405 0.199269 -1.385602 0.885966 -0.418474 0.176773 -0.649903 0.972525 0.380630 0.543907 -0.133845 -0.422263 0.783101 0.060649 0.447409 -0.225607 -0.040571 0.475004 -0.457078 0.048396 -0.759140 -0.280045
man 0.976677 -0.579667 -1.176672 -0.268302 -0.436777 -0.217457 -0.630777 -0.558852 -0.636355 -0.509468 0.074087 -1.314622 0.356543 -0.447008 -1.245141 -0.207075 -0.076836 -0.570307 -0.646975 -0.808762 1.117646 -0.385311 -0.652778 -0.735938 -0.248904 -0.145185 -0.245215 -0.190785 -0.016745 0.004907 -0.459649 0.659477 -1.152749 0.069529 -0.557641 0.364279 0.759824 -0.202893 -0.142479 0.203556 0.319754 0.700878 -0.138737 -0.890788 0.190878 0.182293 -0.666931 -0.409881 0.755335 0.266235
cat -0.134094 -0.516050 0.622065 0.386763 -0.220582 -0.345508 0.593838 -0.124472 0.071414 -0.746681 0.340296 -0.201001 -0.053854 -0.495015 0.032659 0.132696 -0.562256 -0.016091 -0.259641 -0.423463 0.325978 0.274209 -0.252546 -0.597100 -0.210692 -0.924361 -0.237844 -0.062686 0.230904 0.185528 0.093684 -0.024681 -0.343803 0.133110 0.212403 0.339342 0.345260 0.157244 0.263794 0.516960 0.053113 0.578447 0.238590 0.310390 -0.057198 1.250985 -0.613454 -0.159434 0.241658 0.289119
heat -0.182296 0.076355 -1.061382 0.237095 -1.353835 -0.459485 0.317284 -0.706484 -0.739068 -0.685144 -0.243591 1.248779 0.506797 -1.031599 0.397843 1.287474 0.522118 0.140704 -0.947229 -0.144035 -0.357240 0.364505 -0.083837 -0.001992 -0.232874 -1.069723 -0.331750 -1.121625 0.449809 -0.182727 -0.070199 -0.507186 0.146174 0.934156 1.098307 -0.111086 -0.172478 0.186753 0.418520 0.367769 0.623568 0.216636 -0.337035 0.124464 -0.664562 -0.676419 -0.839867 -0.130778 -0.227294 -0.531892
silence 0.213539 -0.499899 0.102926 -0.050641 -0.008216 -0.543875 -0.257393 -0.481675 0.554009 -0.737276 0.243371 0.749186 0.026832 -0.291992 -0.204725 0.767340 0.206602 0.022154 0.089594 -0.090414 0.075956 -0.433005 -1.046094 -0.404897 0.080626 -1.007879 0.067600 -0.312917 0.802359 -0.507817 0.247159 -0.401401 -0.409659 -0.359658 -0.220654 -0.461665 -0.371386 -0.283986 0.788309 -0.535875 0.618043 0.431083 -0.499268 0.393062 0.950746 0.027052 -0.534113 -0.368052 -0.924716 -0.119438
deep -0.096381 -0.283835 0.297219 -0.172883 -0.123661 -0.200961 0.635952 -0.082681 -0.486571 -0.048299 -0.319073 -0.038260 -0.530043 0.013375 -0.348093 1.277469 -0.015925 0.106933 0.003607 -0.473770 0.412165 -0.134553 -1.077288 -0.111334 -0.701408 0.173373 -0.352193 -0.610523 0.521691 -0.403171 0.507341 -1.069520 -0.403491 -0.278205 -0.612088 0.109260 -0.126498 0.032968 0.288392 -0.044507 0.533513 0.651868 -1.040205 0.308367 0.472361 0.065896 -0.548054 -0.734271 -0.617776 -0.012792
face 0.611726 -0.386382 0.583904 0.632623 -0.285235 -0.061118 1.103589 0.474235 -0.336934 -0.057393 0.342960 0.764973 0.662620 0.041174 -0.208818 0.256261 -0.191464 -0.811480 0.118551 -0.129967 1.591142 0.997043 -0.900294 -1.019121 -0.539546 -0.473639 -0.859744 -0.036046 -0.220822 0.032742 -0.453494 -0.505615 -0.255898 0.352460 -0.906275 -0.487520 -0.187616 0.309631 0.398437 0.745881 -0.424237 -0.057782 -0.181170 -0.520565 0.440035 0.534105 -0.361819 -0.369057 0.596408 0.704653
shadows 0.255190 -0.223644 -0.069614 0.648618 0.475702 -0.320608 0.419547 0.066921 -0.124662 -0.373905 0.238629 -0.262565 -0.372007 -0.220410 -0.338798 1.021965 0.236767 0.414375 0.544948 -1.214139 -1.018659 -0.186070 -0.432801 -0.613864 -0.271407 0.255717 -0.082110 -0.805653 0.589525 -0.167477 -0.071568 -0.492732 0.583836 0.485967 -0.125717 1.005528 0.451209 -0.033126 0.444610 -0.179657 0.139066 0.011419 0.336443 0.899526 -0.099609 0.394063 -0.689666 -0.102604 -0.639498 0.074033
fog -0.029931 0.205040 0.183143 0.120668 -0.433356 -0.009770 -0.128998 -0.016210 -0.815913 -0.336306 -0.768984 0.154583 -0.370865 -0.553596 -0.539487 0.233347 -0.377124 -0.293407 -0.216697 -0.667235 -0.417765 -0.176443 0.107136 0.426286 0.433854 -0.410217 0.140852 -1.051590 0.930254 -0.087827 0.274867 -0.350178 -0.463455 0.523842 -0.034645 0.950103 -0.238516 0.545382 0.715931 -0.078536 0.086009 0.397487 0.183707 0.383964 0.631334 -0.040799 -0.221807 0.043943 0.040610 0.127808
dusk -0.096062 0.225942 -0.155940 -0.381367 -0.020146 -0.620738 0.279189 0.265701 -0.663640 -0.453276 -0.351764 -0.259774 -0.003877 -0.799664 -0.316603 0.563900 -0.039482 -0.520041 0.037758 -0.559783 -0.278956 -0.233102 -0.321629 0.306364 -0.108484 -0.681755 -0.172015 -0.629949 0.688260 -0.229567 -0.359812 -0.425274 -0.056822 0.806775 0.036503 0.109679 0.369071 0.264591 0.186887 0.292242 0.027960 0.480671 -0.173851 0.525067 0.479252 -0.263760 -0.408001 -0.123227 -0.310803 -0.313828
song -0.800762 -0.898096 -0.447601 -0.739552 -0.130847 -0.434643 0.030690 -0.595382 -0.454266 -0.233065 0.975356 -0.047397 -0.138535 -1.211515 0.306635 -0.173150 1.314714 -0.679308 -0.624180 -1.630612 -0.373599 -0.472069 0.064988 0.613729 -0.828672 -0.655317 -0.676584 -0.082693 -0.165370 -0.704633 0.000027 0.665137 -0.001789 0.511237 0.291468 -0.033581 0.112461 0.691533 -0.230730 -0.489323 0.363215 0.517536 0.840312 0.890768 0.609044 0.247005 0.112831 -0.344761 -0.417903 -0.051349
trees -0.248398 0.137891 0.951804 -0.199099 0.355333 0.085430 -0.326237 0.399675 0.143323 0.085037 -0.313846 -0.618238 -0.460297 0.341606 -0.356764 0.392168 0.117850 0.017462 0.694711 -0.369618 -0.164833 -0.531609 -0.341291 -0.045121 -0.579618 0.295555 0.318066 -0.596111 0.472536 -0.639129 0.841020 -1.379203 0.511541 0.470082 -0.767166 1.073546 0.478952 0.386057 -0.490723 -0.780774 -0.165811 0.401268 0.624465 0.176504 0.256488 0.056303 -0.769324 -0.592286 -1.340114 0.310172
afternoon 0.663453 0.474664 -0.294754 0.001851 -0.321247 -0.734723 0.061646 -0.600815 -0.538997 -0.606570 0.003119 0.306786 0.672298 -1.423168 -0.122824 1.544593 -0.276699 -0.290748 -0.019951 0.114454 -0.713756 -0.119226 0.095993 -0.425514 0.022074 -0.966223 -0.508889 -1.147865 0.754146 -0.348404 0.008718 -0.689064 -0.235894 0.690460 0.629045 0.200036 -0.442511 -0.001040 0.927867 0.078176 0.435961 0.131569 -0.066146 0.286862 -0.093034 -0.332293 -0.467020 -0.477918 -0.505814 -0.922677
black -0.177783 -0.422708 0.494877 0.162140 -0.646787 0.148063 0.736853 0.505648 0.024725 -1.363411 -0.321228 -0.376534 -0.439500 -0.196371 0.151181 0.426543 -0.164054 -0.147281 0.121082 -0.834901 0.075842 0.576946 0.015274 0.070354 -0.244484 -1.063190 0.397647 -0.773046 0.392797 -0.501406 0.038247 0.165350 -0.408531 0.559628 0.146046 0.755270 0.806942 -0.205024 -0.001311 -0.248955 0.101548 0.406327 -0.148849 -0.086996 -0.008888 0.874904 -0.003259 -0.547248 -0.060906 0.414627
has 0.104682 0.279147 -0.618871 0.534584 -0.004271 0.199081 0.230941 -0.191954 0.164385 -0.514986 0.519066 -0.488015 0.305611 -0.211265 -0.796591 -0.270372 0.063986 -0.409689 -1.298261 -0.578902 -0.498534 -0.065774 0.002669 -1.257021 0.069866 0.072972 -0.488064 -0.453734 0.082086 -0.348790 -0.079881 0.121514 -1.210815 -0.026150 -0.608521 0.934729 0.570826 0.071653 -0.291002 -0.816481 -0.337997 0.201186 0.448252 0.548316 0.407672 -0.447189 -0.730003 0.737426 0.529219 -0.206866
breeze -0.268315 0.583144 0.265315 0.236503 -0.193773 -1.111061 -0.010333 0.092519 -0.368075 0.130190 -0.422785 0.105668 -0.249481 -0.845363 0.433102 1.058890 0.486074 -0.355916 0.330620 -0.248269 -0.900600 -0.417053 -0.012394 0.637341 0.407057 -0.637674 -0.474864 -0.201042 0.857108 -0.310492 0.064603 -0.052351 0.116436 1.215072 -0.078659 0.214671 -0.274431 -0.117320 0.196806 0.414715 -0.439564 0.649006 -0.187982 -0.449104 0.639336 -0.360066 -0.711779 -0.597776 -0.513401 -0.764706
leaf 0.354992 0.459027 0.766904 0.614573 0.328185 -0.097261 0.513435 0.243498 -0.042704 0.474653 -0.110691 -0.056239 0.403248 -0.204271 -0.493816 0.840203 -0.060597 -0.699838 -0.702525 -0.119909 -0.954356 0.322794 -0.748030 -0.284804 0.466983 0.447186 0.308746 -0.102732 -0.371094 -0.628601 -0.968812 -0.171104 0.174532 0.980499 -1.128363 0.486126 0.268849 0.594149 0.425557 -0.946517 0.129162 0.381695 -0.011018 -0.363216 -0.823507 -0.369721 -0.925257 0.078426 -1.749536 -0.444105
garden -0.507398 -0.439357 -0.303318 0.539820 0.447697 0.179282 -0.510408 -0.047375 0.533216 -0.619605 0.040687 -0.280493 0.226238 0.033337 -0.251844 0.053649 -0.203053 -0.110705 -0.425436 -0.319959 0.033633 -0.161184 -0.473124 -0.566895 0.675037 -0.575358 -0.499775 0.068191 0.173188 -0.042170 -0.714840 -0.187373 -0.150225 0.509969 -0.561468 -0.070370 0.592019 -0.566316 0.308264 -0.394848 -0.903053 0.642544 -0.186108 0.055838 0.345265 0.207384 -0.728587 -0.698970 -0.256044 -0.355230
heart -0.418782 -0.122707 0.783009 0.090634 0.150046 -0.883093 1.014915 -0.711212 0.155338 0.343420 0.459805 -0.502692 -0.588623 -0.321905 0.255023 0.092220 0.503503 0.314458 -0.760610 -0.098527 0.177226 -0.291319 -0.874903 -0.024599 -0.217108 0.034726 -0.413322 0.113677 -1.127034 0.219183 0.277230 0.537115 -1.149043 -0.434020 -0.388953 -0.065147 0.163202 0.305853 -0.252423 0.394140 -0.323049 0.563410 -0.247679 -0.834194 0.944152 -0.378964 -0.297426 -0.857086 -0.239878 0.663209
grass -0.434251 0.082532 -0.717759 0.194551 -0.080768 -0.161341 0.076701 0.151906 0.854590 0.255641 0.626597 0.536412 0.381795 -0.250978 0.323745 1.092653 0.296267 0.284068 -0.143363 -0.606426 -0.427621 0.472474 -0.148759 -0.417927 0.261204 -0.592493 -0.058326 -0.106618 0.185106 -0.813763 -0.101445 -0.141642 0.126491 0.841820 0.022700 0.160482 0.674743 -0.046232 -0.642508 -0.288364 -0.970458 0.655260 0.213133 -0.565641 -0.162234 0.149221 -1.063793 -0.856649 -0.288794 -0.844057
dawn 0.145449 -0.205642 0.329843 -0.276685 0.466856 -0.439981 0.433275 0.753205 -0.616352 -0.760165 -0.373944 -0.694688 -0.030806 -0.677722 0.341513 0.640745 -0.449224 -0.584417 0.587565 -0.185918 0.283736 -0.515751 -0.421451 -0.124543 0.462521 -0.506810 -0.635744 -1.084974 0.985843 -0.494976 -0.434847 -0.228934 -0.233422 0.117074 -0.239832 -0.137935 0.018485 0.174777 -0.004155 -0.319522 0.198302 0.288578 -0.374262 0.291148 0.888123 -0.514597 0.232786 -0.063744 -0.410642 0.157322
here 0.661674 0.474653 -0.125216 -0.067602 -0.713242 -0.384477 0.730476 0.344027 0.504219 -0.378380 -0.223060 -0.254193 -0.283940 0.073218 -0.471733 0.102573 0.386430 0.470042 0.614051 0.222480 0.288873 -0.406182 -0.502460 -0.563370 0.109231 0.011037 -0.376236 0.260428 0.916708 -0.695664 0.584359 0.244186 -0.305935 0.149586 -1.159515 -0.161650 -0.268476 -0.550533 -0.705438 -0.314919 0.509631 0.213025 -0.282999 -0.165778 1.159326 -0.129705 -1.230067 -0.104231 0.146729 0.029649
hand 0.209274 -0.169989 0.097079 -0.071022 0.748664 -0.776979 1.348243 0.202991 0.286505 -0.330199 -0.010748 0.034756 -0.671704 -0.033888 -0.844678 0.272927 -0.408364 -0.454674 0.138280 -0.664063 0.669687 -0.122642 -0.421592 -0.894336 0.769100 -0.438882 0.023520 0.107959 -0.624119 0.114973 -0.684284 -0.099488 -0.667105 0.152868 0.158823 0.308507 -0.909809 0.719724 -0.423835 0.228430 0.060189 0.329558 0.904755 -0.577176 -0.017897 0.158824 0.042314 0.035327 -0.723679 -0.508988
left 0.251410 0.441201 -0.263250 0.033831 0.112728 -0.242011 0.148608 0.474143 0.451566 -0.641803 0.273420 0.578600 -0.433099 -0.208299 -0.680447 -0.510740 -0.010060 0.059558 -0.241779 -0.728077 -0.062549 -0.507258 0.178291 -0.889366 0.605624 -0.482724 0.037823 -0.553481 0.039936 -0.131396 -0.234951 -0.959339 -0.819154 0.382825 -0.221959 0.325171 0.176841 0.259173 0.056895 -0.507596 -0.415790 -0.197214 0.832955 0.463538 0.918447 0.183955 -1.085431 -0.115384 0.343252 1.045742
mother 0.009050 -0.340245 0.101761 0.269712 0.101942 -0.458062 0.695084 0.031326 0.220868 -0.316457 0.504246 0.243092 0.201351 -0.491708 -0.152018 0.212229 0.299749 -0.108308 -0.285450 -0.429781 0.339896 0.289970 -0.018974 -0.796638 0.260437 -0.804317 -0.782991 0.325032 -0.355300 -0.129087 -0.094498 0.169713 -0.371153 0.353170 -0.234443 0.053951 -0.153869 0.155645 -0.216858 0.346958 -0.290093 0.211118 0.452896 -0.332510 -0.091379 0.528968 -0.735838 -0.485168 -0.135106 -0.106029
little 0.912568 -0.007267 0.720780 -0.236345 -0.053682 -0.164846 0.408754 0.497883 -0.304204 -1.523342 -0.127017 1.306113 -0.436386 -0.275043 -0.163125 -0.314998 1.046986 -0.529285 0.099505 -0.649316 -0.546926 0.343667 -0.236063 0.566718 0.557301 0.118258 0.812880 -0.179742 -0.335864 0.527475 -0.835476 0.737306 -0.779194 0.850732 -0.336016 0.242448 -0.245373 -0.771142 0.135181 -0.221800 -0.215388 0.401030 1.353163 -0.133588 -0.477556 -0.353721 -0.664297 -0.335450 0.490584 0.196163
sunset 0.378157 0.390600 0.190640 -0.104287 0.114728 -0.297831 0.451208 0.348526 -0.099052 -0.429288 -0.231098 0.156796 0.026536 -0.643194 0.079643 1.081044 -0.104185 -0.423992 0.334747 -0.230052 -0.241996 0.189348 -0.024610 -0.327215 -0.087245 -0.463596 -0.112862 -0.524802 0.677394 -0.322350 -0.275502 -1.061158 0.154434 0.321976 0.270221 0.061260 0.473277 -0.026843 0.318161 -0.192648 0.260523 0.207987 -0.140951 0.386495 0.247196 -0.185354 -0.412192 -0.226252 -0.404220 -0.164874
never 0.474786 0.062957 -0.892517 -0.094332 -0.486333 -0.382978 0.191969 -0.034793 1.397493 -0.025725 0.203802 0.210305 -0.294288 -0.096963 -0.197733 -0.148435 0.396146 0.498346 -1.058099 -0.057399 -0.192812 -0.599807 -0.062064 -1.363945 0.043060 0.212967 -0.441139 0.019649 0.063556 -0.380785 0.178362 -0.042200 -0.635774 -0.964580 -0.866920 -0.462120 0.248369 0.051001 -1.087204 -0.144790 0.101747 0.429448 0.301719 0.033372 0.361914 -0.647395 -0.817975 0.313417 0.366975 0.298365
late 0.530198 0.506569 -0.196923 -0.431725 0.204239 -1.072178 0.126891 -0.479123 -0.268600 -0.421825 -0.258816 -0.359230 -0.035193 -1.208629 -0.416561 1.025944 -0.305571 0.025367 -0.234592 0.211679 -0.844732 -0.088678 -0.008429 -0.598049 -0.093851 -0.567560 -0.669783 -0.819573 0.690905 -0.010579 -0.148957 -0.848338 -0.600325 0.034965 -0.453996 -0.247568 -0.200367 0.013934 -0.081265 0.434828 0.596420 0.123606 -0.214080 0.478598 0.294175 -0.697412 -1.082988 -0.055708 -0.169377 -0.648072
about -0.027661 0.470843 -0.689462 0.099643 0.020405 -0.887331 0.428339 0.678542 -0.117618 -0.365707 0.094714 0.318131 -0.372504 0.108579 -0.386417 -0.866751 0.523473 -0.073175 -0.127556 -0.261155 -0.004451 -0.785230 -0.344411 -0.212460 -0.168317 -0.372132 0.232231 0.964244 -0.183775 0.673114 0.593346 0.963564 -1.086833 0.645345 0.088731 -0.131700 0.209464 -0.437726 -0.067102 0.038067 0.707682 0.443124 0.359769 -0.151812 1.322386 0.307321 -1.108504 0.180383 0.276487 0.068892
know 0.223019 0.083525 0.375571 -0.173091 -0.148328 -0.353887 0.306866 -0.330679 0.549452 -0.051977 0.093300 0.961161 -0.150635 -0.271551 -0.391671 -0.608129 1.036381 0.404220 -0.641209 -0.445483 -0.157231 -0.689417 -0.448796 -0.866251 -0.859557 0.112565 0.023090 -0.019243 -0.498499 0.401146 0.958245 -0.555276 -0.973627 0.113709 -1.236197 -0.064444 -0.145533 0.509045 -0.886408 0.494481 0.656595 0.038532 -0.079864 -0.240335 1.236413 -0.894075 -1.030344 0.062396 0.013599 0.388666
falling -0.240018 0.151617 1.053548 0.327997 0.268221 -0.230055 0.210989 0.386677 0.048724 0.081536 -0.636636 -0.024379 0.600855 -0.441898 -0.176250 0.007030 -0.475899 -0.045784 -0.376885 0.226822 -0.794783 -0.129576 -0.686856 0.269862 0.228966 -0.335767 -0.452794 -0.268305 -0.324223 -0.356338 -0.488658 -0.254941 0.156909 0.656133 -1.582826 -0.068940 0.205298 0.348779 -0.291738 -0.705726 -0.401069 0.205144 -0.453122 -0.337405 0.535450 0.112859 -1.444724 -0.194875 -1.334297 0.757353
green 0.073110 0.148826 0.313616 0.230706 0.266637 -0.266319 0.098104 0.101132 0.334404 0.022383 -0.106736 0.207264 0.619615 0.195258 0.049701 0.914366 0.191516 0.198420 0.107683 -0.573243 -0.466537 -0.160017 -0.075629 -0.253923 -0.292517 0.092731 0.328328 -0.613947 -0.092274 -1.242763 -0.308856 -0.471843 -0.307915 0.610158 0.004191 0.440299 0.036741 -0.374214 -0.482951 -0.888500 -0.715997 0.901946 -0.361647 -0.219104 -0.200282 0.396796 -0.907070 -1.285459 -0.739380 0.018238
some 0.086917 0.371111 0.280322 -0.744383 -0.221312 -0.152697 0.992315 -0.391655 -0.025177 -0.291982 -0.504335 0.747471 0.300803 -0.289345 -0.449978 0.015981 0.354117 0.215871 0.114346 -0.075295 -1.035050 -0.191570 0.172874 0.240114 -0.302799 0.036039 -0.351420 -0.363465 -0.204292 -0.470813 0.270784 0.080813 -0.991909 -0.060874 -0.451816 0.106130 -0.447319 -0.382634 -0.533081 -0.998750 0.021458 0.245333 0.229972 0.173241 0.580222 0.052416 -0.911150 -0.216637 0.334332 0.616724
sea -0.500098 -0.053270 0.112747 -0.054210 -0.686961 -0.606700 0.160073 0.009742 -0.217974 0.070924 -0.276755 0.137467 -0.975546 -0.488825 0.230227 1.063100 0.228917 0.396688 -0.332405 -0.615603 0.235194 -0.063284 -0.243205 -0.227035 0.377896 -0.138128 0.073763 -0.616598 0.448224 -0.161849 0.077085 -0.544437 -0.198982 -0.183240 0.043614 0.348893 0.017832 0.030461 -0.261316 -0.046110 -0.389074 0.904774 -0.020278 -0.071330 -0.301290 0.325706 -0.869385 -1.030754 0.371799 0.135782
hands 0.078522 -0.361862 0.254278 0.489119 0.211891 -0.886706 0.767160 -0.544812 0.356208 -0.386739 0.200360 0.177842 -0.104287 0.044305 0.110471 0.481479 -0.022822 0.186906 0.543652 -0.467364 -0.091745 0.132545 -0.046363 -0.066651 -0.245646 -0.263758 -0.582004 -0.203454 -0.109514 -0.051734 0.116321 0.298684 -0.675597 -0.028926 0.439870 0.353839 -0.859388 0.002133 -0.420302 0.436764 -0.106655 0.515586 0.154290 -0.433324 0.373684 0.536927 -0.536634 -0.025882 -0.274050 0.143044
words -0.095538 -0.000065 0.712733 0.051484 0.244568 -0.494368 1.263219 -0.255065 0.067491 -0.553353 0.175906 -0.062118 -0.185058 0.051580 0.246371 0.078872 0.532209 0.386470 -0.149364 -0.434536 -0.219406 -0.125175 -0.095816 -0.026388 -0.308015 0.364426 -1.021805 0.112009 -0.387540 -0.037820 0.354352 -0.260293 -0.701322 0.140217 -0.642364 0.044296 -0.440919 -0.220986 -0.847880 0.201948 0.466371 0.485118 -0.068287 -0.001617 0.474431 -0.200932 -0.646436 -0.027915 -0.222969 0.564548
dead 0.191033 -0.242127 0.262512 -0.014940 -0.018821 0.284375 0.463673 0.210305 0.040843 -0.153814 0.089168 -0.492264 -0.041561 -0.319110 -0.496770 -0.194074 0.315445 -0.145708 -0.222053 -0.569227 -0.122182 -0.214036 -0.391020 -0.090227 -0.496073 -0.377277 -0.336658 -0.281164 -0.176193 -0.495446 0.420673 -0.169663 -0.268247 0.959683 -0.697956 0.553149 0.105055 0.419468 -0.347537 -0.118538 0.289321 0.158290 0.562682 -0.147805 0.243179 0.055164 -0.875674 -0.192217 -0.813290 0.126696
good 0.852123 -0.002219 0.552459 -0.395560 -0.264678 -0.259522 1.035351 -0.482020 0.047924 -0.589562 -0.226482 0.899522 0.194051 0.151865 -0.359818 -0.062613 0.450707 0.087780 -0.283299 0.176588 -0.649695 0.451405 0.213629 -0.151350 -0.104551 -0.397224 -0.650035 -0.590181 0.481390 -0.352053 0.518933 0.895898 -1.062938 0.160773 -0.455502 -0.122797 -0.965272 -0.542875 -0.474440 -0.404206 0.864566 0.938848 0.467524 -0.298445 0.773606 -0.417157 -0.293586 -0.218196 0.947465 -0.241020
open -0.019942 0.324689 0.786187 -0.555759 0.420900 -0.424754 -0.051479 0.129882 0.259791 -0.440886 -0.122364 -0.436305 -1.152409 0.537827 0.288492 0.385757 -1.494472 0.665786 -0.955368 -0.052599 0.567203 0.738809 -0.877085 0.184012 0.567639 -0.346361 0.220748 -0.098453 0.021914 0.462505 0.134313 -0.353306 -0.288284 -0.253444 -0.619087 -0.701979 0.030156 0.281397 0.239414 0.186403 -0.639542 0.929813 0.909888 0.193853 0.995902 0.864685 -0.387744 -0.126493 0.690790 0.496428
small 0.616049 0.016105 -0.332466 0.266968 0.609509 -0.504498 0.886374 0.261691 0.120215 -1.108857 0.228438 -0.070883 -0.753642 0.309694 -0.245863 0.419679 0.174318 -0.411290 0.006117 -1.104024 -0.008339 0.455764 -0.290333 -0.144081 -0.224766 0.023539 0.806282 0.062591 -0.256151 0.023953 -0.447449 0.067607 -0.778569 0.618905 0.630880 0.692768 -0.134316 -0.286347 -0.032142 -0.717099 0.577443 0.412059 0.739109 0.365724 0.001743 0.608027 -0.520939 0.334128 -0.501166 -0.327122
child 0.216451 -0.381046 0.576321 0.363303 -0.213461 -0.742808 0.448453 0.510550 0.217307 -0.549972 -0.014666 0.405345 0.315482 -0.047105 -0.080840 0.009666 -0.378190 -0.614043 -0.611816 -0.209685 0.679673 0.364303 0.080083 -0.676557 0.327190 -1.103703 -0.107282 0.198104 -0.323064 0.149570 -0.193228 -0.316306 -0.503751 0.321617 0.013689 0.089076 -0.108537 -0.034874 -0.146404 0.535482 -0.295783 0.268037 0.556803 -0.274347 -0.056547 0.536275 -0.215588 0.130050 -0.008821 0.170813
see 0.450543 0.618216 -0.391795 -0.137245 -0.040802 -0.459061 1.003986 0.724324 0.276608 -0.184337 0.292161 -0.325952 -0.521539 0.041247 -0.260643 0.182427 -0.244720 0.478974 -0.094913 -0.255283 -0.114618 -0.082782 -0.322876 -0.711164 -0.635660 -0.105980 -0.553471 -0.090485 -0.465543 -0.211442 0.454973 -0.399017 -0.955229 -0.059265 -1.288362 -0.111006 0.053326 0.014357 -0.682579 -0.092769 0.140589 -0.320198 0.101425 -0.378517 0.752032 0.011197 -0.327475 -0.129472 0.067245 0.238477
smell -0.601803 -0.122158 -0.071243 0.218676 -0.256337 -0.368765 0.133311 -0.122701 0.289561 -0.012558 -0.011997 0.002560 0.668914 -0.459662 0.108452 0.577966 0.014174 -0.173549 0.598149 0.195452 -0.383796 0.093304 -0.405721 0.167044 -0.047479 -0.537651 -0.949189 -0.158309 -0.093769 -0.637288 -0.243607 0.818223 0.012596 0.483171 0.002482 0.017980 -0.118058 0.184747 -0.562332 0.030518 -0.931237 0.359514 -0.197707 -1.069766 -0.444064 -0.194655 -1.283213 -0.912151 0.027400 -0.229844
around -0.273757 -0.114461 -0.006720 0.324441 0.619223 -0.118961 0.074622 -0.276217 -0.022765 -0.053156 -0.082159 0.174012 0.041713 0.084930 -0.360796 0.180282 0.699723 0.115889 0.042399 -0.451416 -0.734022 0.444078 -0.049154 -0.184715 -0.217740 0.046314 -0.389503 0.006100 -0.252820 0.146253 -0.295073 -0.252848 -0.006090 0.316202 -0.557279 0.232466 0.151586 0.053791 -0.091896 0.087980 -0.643034 0.047513 0.515704 0.451388 0.387685 0.400806 -0.992594 -0.006212 -0.413156 0.692184
lost -0.196363 -0.177049 0.363369 -0.220532 -0.297386 -0.539227 0.213703 -0.404929 0.577369 -0.391175 0.654211 0.135012 -0.568072 -0.280325 -0.028792 0.101816 0.202373 -0.061917 -0.679190 -0.545082 0.274526 -0.270008 -0.215740 -0.278433 -0.484724 -0.712738 -0.451808 -0.383072 -0.179300 -0.652088 0.694992 -0.593547 -0.381657 -0.214063 0.226209 -0.006398 -0.104960 0.105197 -0.030607 -0.233614 0.065616 0.459937 1.066993 0.570657 0.953026 0.391334 -0.752901 -0.160075 0.250497 0.089320
storm -0.081147 0.268780 -0.777721 -0.149750 -0.646202 -0.365906 -0.578232 0.668856 0.594227 -0.967283 -0.605669 0.528712 0.164127 -0.915057 0.312681 1.240026 -0.191973 -0.391658 0.556213 -0.262241 -0.560513 0.418410 -0.530066 0.529472 -0.168300 -1.167069 -0.031693 -0.362667 1.258332 -0.256196 -0.081662 -0.316829 0.114454 0.321720 0.007833 -0.038652 0.851231 0.190240 0.454319 0.379690 0.044828 0.506725 -0.101262 -0.208569 0.217731 -0.198096 -0.251106 -0.037723 0.065259 0.132763
tea 0.270665 -0.215291 0.264868 -0.378622 0.083585 -0.447957 0.160862 -0.854657 0.439465 -0.393973 -0.161597 1.051209 1.305336 -0.034951 -0.507230 0.846176 -0.326200 -0.015594 0.278840 0.216806 -0.560174 -0.288104 -0.187967 -0.361062 0.498994 -0.842426 -0.020066 -0.729006 0.272026 -1.048508 -0.276063 0.641443 -0.638510 0.267495 0.412245 0.375678 -1.416508 -0.079259 0.174535 -0.810148 -0.475572 0.926596 -0.160854 -0.473035 -0.307382 0.164104 0.039349 -1.225925 -0.525318 -1.045024
house 0.042806 -0.491463 -0.073202 -0.153250 0.497180 -0.710915 -0.152328 -0.352606 -0.878908 -1.010850 0.137800 -0.364990 -0.106330 0.080473 0.124563 0.372388 -0.161010 -0.653349 -0.292236 -0.575268 0.234580 0.169095 -0.225732 -0.590372 -0.125293 -0.262520 -0.706667 -0.441287 0.408874 0.164449 -0.190626 0.108332 -0.473163 0.145992 -0.635595 0.236326 -0.486233 0.223835 0.481693 -0.554768 -0.042966 -0.323566 0.428033 0.438889 0.349805 0.485208 0.138598 -0.277952 -0.079779 -0.180436
alone 0.654246 -0.178560 -0.592221 -0.490630 0.079192 -0.648715 -0.211819 -0.345416 -0.148886 -0.060826 0.384575 -0.678120 -0.251431 -0.739594 -0.372754 -0.113175 0.338138 -0.017625 -0.198606 0.002800 -0.170416 -0.261100 -0.258663 -0.055142 -0.205137 -0.269418 -0.384259 -0.333041 0.140063 -0.292180 -0.064502 0.112451 -0.640438 -0.127148 -0.656343 -0.513582 -0.310462 -0.210944 0.013045 -0.115647 0.589159 -0.071385 0.347762 0.002709 1.003199 0.183687 -0.914723 -0.249164 0.138185 0.067016
air -0.192658 0.336261 0.667880 -0.453717 -0.456816 -0.783714 0.079617 -0.112615 -0.076495 0.033458 -0.495106 0.023143 0.210844 -0.934797 0.202045 0.656937 -0.465809 -0.034803 0.657994 0.938167 -0.655363 0.214606 -0.410312 0.502401 -0.251572 -1.058610 -0.163207 -0.538954 0.344368 -0.174081 0.165496 0.028796 -0.265219 0.355923 0.088732 -0.117767 -0.805748 0.268970 -0.232201 0.254696 -0.544254 0.392660 0.386271 -0.580890 0.406312 -0.156905 -0.939597 -0.709889 -0.066301 0.115822
warm 0.115301 -0.161854 0.405853 0.330490 0.227709 -1.345668 0.503968 -0.219078 -0.008298 -0.175882 0.441940 0.030126 0.264394 -1.141349 0.250407 0.760245 0.333424 -0.415829 0.474969 0.258056 -0.269487 -0.070626 -0.564426 0.035959 0.157058 -1.177241 -1.004920 0.014455 0.070437 -0.081003 -0.450607 0.387713 -0.418767 0.573466 -0.106743 -0.711185 -0.750440 -0.004238 -0.079756 0.867063 -0.146326 0.579190 0.224715 -0.763446 0.326063 -0.197227 -0.384921 -0.986391 -0.335063 -0.540328
across -0.456855 -0.181651 -0.138193 0.308543 0.650424 0.081765 -0.049754 0.047895 0.032717 0.337020 -0.017774 0.206663 -0.465272 -0.036781 -0.447034 0.693374 -0.127979 0.259655 0.019207 -0.939225 -0.112711 0.595801 -0.032622 -0.140262 0.199104 -0.058159 0.358740 -0.146178 -0.069434 0.098796 -0.128681 -0.866831 -0.004099 0.195741 -0.245822 0.692798 0.553844 0.222808 0.536830 -0.137241 -0.504340 0.048447 -0.114769 0.335363 0.116279 0.897730 -0.652991 -0.271508 -0.619423 0.294346
without -0.054253 0.091882 0.229270 -0.345075 0.002728 -0.890138 0.700502 -0.017754 -0.371696 -0.238351 0.121996 -0.115046 -0.199564 -0.202596 0.021487 0.198909 0.155876 -0.137146 -0.154171 0.331035 0.137373 0.046710 -0.194626 -0.044619 -0.560591 -0.272854 -0.728228 -0.019735 0.117006 0.097785 0.001031 -0.451904 -0.380074 -0.020261 -0.424105 -0.336482 -0.271074 0.193000 -0.147166 0.017456 0.296500 -0.023421 0.242257 0.138097 0.338972 0.257814 -0.308294 -0.468792 0.148941 0.160355
world 0.039914 0.309050 -0.075736 0.110289 -0.006772 -0.256746 0.682402 0.266771 -0.495968 0.170263 -0.071623 -0.073778 -0.367726 -0.091023 -0.137655 0.303987 0.513928 -0.063549 -0.770783 -0.173895 -0.319443 0.063225 -0.433501 -0.266026 -0.468004 0.280266 -0.658568 -0.249072 0.208031 -0.239564 -0.069507 0.280420 -0.709676 0.085409 -1.023767 -0.227694 0.273204 0.116595 -0.044835 -0.519027 0.479024 0.538302 -0.067189 -0.003021 0.473246 -0.373192 -0.236804 -0.276396 0.291560 0.283627
ice -0.648713 -0.428606 -0.347069 0.199720 -0.721556 -0.132867 -0.146628 0.240468 0.099463 -0.582557 -0.408359 -0.257322 -0.181063 -0.935291 -0.164836 -0.032567 -0.514567 0.286140 0.244904 -0.636154 -0.125833 0.695913 -0.042173 0.384680 -0.145019 -1.615845 0.462025 0.045836 0.262741 -0.456548 -0.353797 0.459654 -0.292318 0.434629 0.057102 -0.035064 0.623428 -0.489750 0.183781 0.076024 -0.094758 0.858721 -0.869391 -0.026356 0.259172 0.780798 -0.357532 -0.353818 -0.071374 1.025776
every 0.756814 -0.206244 0.305091 0.083164 0.510649 -0.645887 0.242532 0.196812 -0.454282 -0.598851 -0.213127 0.312514 -0.481382 0.175711 0.064711 -0.182294 0.493602 -0.206844 -0.642405 -0.162874 -0.838839 0.691061 -0.585007 -0.154208 0.392107 0.051174 0.445345 -0.378541 0.247662 0.301425 -1.384073 0.760826 -0.168660 0.745712 -1.530035 -0.381511 -0.229258 0.187031 0.024634 -0.512792 0.016015 0.467605 1.011886 0.189772 0.092288 -0.424301 -0.005847 0.320136 -0.280801 0.003263
then 0.586381 0.141030 0.378056 0.413571 -0.325693 -0.327941 0.988492 0.000592 0.476709 -0.214145 0.328280 -0.536181 -0.786820 -0.471927 -0.581056 0.146787 -0.020019 -0.317119 -0.074861 -0.034579 -0.083150 -0.411959 -0.016346 -0.323597 0.594402 -0.115009 -0.598261 0.067283 0.715009 -0.607963 -0.546205 0.661078 -0.512820 -0.347636 -0.727084 -0.431151 -0.071497 0.080774 -0.433029 -0.515365 0.818545 0.215987 -0.332207 -0.117595 0.301800 0.005321 -0.856627 0.242517 0.026828 0.003834
mountain -0.466906 -0.145151 -0.482293 -0.077632 -0.327099 0.501621 0.092730 -0.100868 -0.252787 -0.015728 -0.696716 0.397294 -0.580269 0.033965 -0.144409 0.643687 0.240989 0.156170 -0.503530 -0.754057 0.196259 0.398256 -0.459452 0.128646 0.335845 0.024897 -0.093753 -0.777621 0.503135 -0.268282 0.121949 -0.555115 -0.404845 -0.002526 -0.413625 0.335034 0.169765 0.508570 0.677362 -0.270679 -0.202065 0.299487 -0.068028 -0.056695 0.210598 -0.194774 -0.080338 -0.222037 -0.062207 0.305597
behind -0.308748 0.251058 -0.216325 -0.281247 0.449747 -0.018993 0.390068 0.587634 0.219705 -0.081570 0.341209 0.485433 -0.086103 -0.123490 -0.479046 0.032406 -0.603845 0.528025 -0.270078 -0.626367 -0.035343 -0.143032 -0.009944 -0.602217 0.610856 -0.532005 -0.395674 -0.558108 -0.284771 -0.079622 -0.143359 -0.874956 -0.191181 0.088538 -0.066243 0.222790 0.373471 0.621859 0.178643 -0.450185 -0.505660 -0.084336 0.865906 0.328503 0.407756 0.484671 -0.767731 -0.391351 -0.015458 0.486098
who 0.886867 0.154836 -0.714273 -0.148811 -0.683033 0.304144 -0.115165 0.062547 0.629074 -0.640499 0.364965 -0.061521 0.393147 0.425328 -1.218399 -0.704078 0.927365 0.159229 -0.360641 -0.754140 0.002823 -0.417017 0.309420 -0.533600 -0.577857 0.719298 -0.251502 -0.106821 0.387741 -0.839480 0.623711 0.068570 -0.400009 0.192015 -0.843064 0.932251 0.189374 -0.003078 -0.588589 -0.442465 0.280232 0.416025 0.551845 0.123735 0.495799 0.464725 -0.346644 0.296552 0.443280 0.221578
before 0.588497 0.172693 -0.222984 -0.235223 0.479625 -0.277252 0.669534 0.588729 0.942439 -1.092362 -0.011996 -0.377652 -0.154650 -0.206856 0.204023 0.470484 0.136285 -0.230955 0.133993 -0.079126 0.147344 0.012894 -0.539486 -0.581696 0.552243 -0.604588 -0.894315 -0.256054 0.478909 -0.537240 -0.232446 -0.731923 -0.080879 -0.589832 -0.334601 -0.697287 0.419266 -0.389340 -0.053216 0.312501 0.218095 0.006083 0.004701 0.163704 1.031919 -0.728210 0.065616 0.425713 -0.161394 0.058381
mist -0.507707 0.379455 0.107934 -0.048248 -0.271234 -0.329057 -0.186813 0.587077 -0.705730 0.208368 -0.697912 0.239166 -0.099774 -0.460218 -0.038254 0.555433 -0.507385 0.096928 -0.310530 -0.268383 -0.060790 -0.424168 -0.079460 0.146311 0.561206 -0.699869 -0.023492 -0.865082 0.584092 -0.189292 0.297368 -0.618237 -0.206587 0.551261 -0.158683 0.187957 0.017266 0.406645 0.366837 -0.141649 -0.195815 0.784615 -0.283545 0.084292 0.496062 -0.279320 -0.579204 -0.653841 -0.230373 -0.066583
pond -0.939306 -0.541044 -0.776031 -0.116120 0.323325 0.307532 -0.185300 -0.264859 -0.323813 -0.377239 -0.939202 -0.565136 -0.650439 -0.207083 0.045078 0.487470 0.335655 0.478865 -0.163909 -0.763492 -0.331819 0.549412 -0.296569 0.512789 -0.029419 -0.652415 0.462995 -0.207359 0.026317 -0.001923 -0.751513 0.189114 -0.558381 0.610356 -0.394367 0.049198 0.660304 -0.168127 0.094902 -0.328232 -0.541005 0.662181 -0.992111 0.174091 -0.002313 0.647825 -0.657695 -0.498957 -0.737162 0.438574
even 0.363316 0.410699 -0.176848 0.034612 -0.162830 -0.425357 0.639541 0.391424 0.113121 -0.311858 -0.559372 -0.134333 0.218683 -0.355414 0.050445 0.112202 0.365546 -0.071702 0.241710 0.088680 -0.219384 -0.514838 -0.423757 -0.575908 -0.583138 -0.179089 -0.349585 -0.506889 0.337058 0.080406 0.557733 -0.401306 -0.806957 0.707045 -0.879635 -0.167238 -0.416707 -0.214836 -0.159368 0.259073 0.081504 -0.236630 -0.642093 -0.224764 1.043574 -0.564147 -0.801128 0.145317 -0.097399 0.124998
blossoms 0.613795 -0.319360 1.494433 0.978336 -0.008226 -0.481970 -1.091606 0.380263 -0.513817 -0.226015 0.041718 -0.552541 -0.468670 0.034827 0.474981 0.445086 -0.212336 -0.395110 0.136255 0.383430 -0.216560 -0.480002 0.138870 0.163578 0.251318 -0.460209 -0.082610 -0.073588 0.246160 -0.235030 0.019492 0.152725 0.615174 1.372504 -0.730769 -0.031928 -0.185832 -0.591333 0.418856 -0.690252 -1.041451 -0.106121 0.099824 -0.330076 0.023898 0.196674 -0.342411 -1.021045 -0.695789 0.782385
road -0.277145 0.353321 -1.122380 -0.216233 -0.630222 -0.015103 -0.152842 -0.251541 -0.014214 -0.170752 -0.064530 0.160582 -0.127884 -0.040197 0.064091 0.588831 0.262315 -0.459764 -1.083908 -0.319273 -0.271199 1.013250 -0.531882 0.174849 -0.436705 0.396272 -0.467329 -0.524455 0.558488 -0.406578 -0.332750 -0.365857 -0.008774 -0.394785 -0.432131 0.035176 0.545243 0.417677 0.818270 -0.520908 0.146809 -0.233146 0.627224 0.106388 0.006054 0.485123 -0.741499 0.231863 0.883605 0.058234
them -0.115017 0.159598 0.938723 -0.088121 -0.324765 -0.301369 0.891217 -0.431752 0.689014 -0.152877 0.223084 0.515222 -0.574981 0.040801 -0.238581 0.143850 0.306506 0.394602 -0.033190 -0.353352 -0.663756 -0.293260 0.278964 0.110004 0.122536 0.397003 -0.534012 0.257863 -0.350350 -0.529511 0.232746 -0.223419 -0.202772 -0.581101 -1.077142 0.118946 -0.091831 0.038891 -1.084243 -0.752845 0.223204 0.117604 0.325892 -0.355936 0.203162 0.070945 -0.553953 0.162862 0.045447 0.793500
than -0.031993 0.627530 -0.060782 0.039818 0.457324 0.301139 1.013407 0.612000 0.650349 -0.965442 -0.704740 0.076564 -0.911031 0.556199 -0.217221 -0.035917 0.682298 -1.017431 0.309603 0.352790 -0.702095 -0.139591 -0.540219 -0.110289 0.000847 0.921343 -0.003528 -0.361646 0.348031 0.453525 -0.315823 -0.359945 -1.323279 0.014888 -0.443421 0.406101 0.425302 -0.382082 -0.259066 -0.151094 -0.074426 -0.417588 -0.742941 -0.324927 0.351612 -1.576953 -0.346668 0.178371 0.144487 -0.612663
hair 0.390346 0.230448 1.095282 0.392177 0.002849 -0.652737 0.485091 0.364618 0.389398 -0.397996 0.277422 -0.160648 -0.150190 -0.538444 -0.049318 0.979507 -0.550839 -0.273485 0.142159 -0.175437 0.253598 0.389449 -0.362769 -0.755956 0.126487 -0.888259 -0.049148 -0.049623 -0.268720 0.022465 -0.030619 -0.548245 -0.097509 0.071888 -0.051861 0.637754 0.383978 0.171460 0.029923 0.607128 -0.553750 0.126531 0.805009 -0.885310 -0.099951 0.778704 -0.300728 -0.451803 -0.101823 -0.076415
feel 0.390200 0.111538 -0.047824 -0.624091 -0.679845 -0.715576 0.884626 -0.594817 -0.028944 0.183017 0.275582 -0.088866 -0.487421 -0.752445 -0.337140 0.117791 0.811650 0.312950 0.009998 0.565608 -0.482597 0.217864 -0.659191 0.326952 -0.919782 -0.316098 -0.397994 -0.106505 -0.170339 -0.343739 0.403109 0.203632 -0.887006 -0.271988 -0.693637 -0.501322 0.338059 -0.203691 -0.753069 0.082624 0.577625 0.094159 -0.569287 -0.828106 1.059981 -0.518156 -0.588936 -0.870595 0.207314 0.286144
twilight 0.000726 0.315348 -0.218320 -0.206580 0.120473 -0.236527 0.127755 0.053723 -0.372096 0.074509 -0.397692 -0.394878 -0.101941 -0.444346 -0.214085 0.846117 -0.152544 -0.453270 0.127421 -0.545769 -0.174297 -0.242313 -0.188725 -0.118179 0.015880 -0.212966 0.043084 -0.646201 0.234600 -0.415724 -0.157808 -0.636497 -0.281507 0.529040 0.209004 0.492643 0.181563 0.017618 0.306914 -0.040357 -0.010194 0.388356 -0.540195 0.019378 0.173284 -0.266108 -0.687940 -0.312282 -0.500566 -0.587606
path -0.375922 0.078083 -0.518167 0.323267 0.250211 0.056826 0.085201 0.167850 0.070846 0.088131 -0.169443 0.079425 -0.376642 0.209819 -0.262221 0.031979 0.208285 0.193671 -0.648178 -0.607725 0.179017 0.702172 -0.555050 -0.455302 0.111509 -0.127511 0.029649 0.014715 0.267772 0.177041 -0.335128 -0.408509 -0.346257 0.549490 -0.838048 0.181679 0.825868 -0.052439 0.238783 -0.110341 -0.303448 0.275629 -0.016100 0.068650 0.839093 0.567792 -0.550435 -0.087294 0.081623 0.093345
breath 0.256845 -0.137489 0.586209 0.259254 0.147474 -0.637884 0.992365 0.095212 -0.238004 -0.236892 0.033092 -0.003605 -0.792855 -0.257527 -0.073067 0.602053 -0.256531 -0.549867 0.623466 -0.276483 -0.540389 0.349163 -0.500261 -0.089539 0.018806 -0.468841 -0.005445 -0.555804 0.464173 -0.233137 -0.762859 0.111999 -0.418712 0.434262 -0.573485 0.116642 -0.278911 0.614175 -0.155445 -0.016488 0.298240 0.011520 0.029949 -0.309846 0.130956 0.046536 -0.192817 -0.076991 -0.530166 -0.129647
stone -0.369541 -1.033823 -0.344436 0.196026 0.375692 0.682701 0.030943 -0.355340 0.440503 -0.278694 -0.517567 -0.801372 -0.453713 0.299890 -0.296406 0.202912 0.277392 0.230453 -0.338368 -0.151676 0.552636 0.255470 -0.939024 -0.372899 0.033542 -0.291565 0.346425 -0.270435 -0.028273 0.049969 -0.151940 0.250784 -0.002976 0.071683 -0.546538 -0.261173 0.088581 0.377190 0.102346 -0.466092 -1.304193 0.722157 0.384622 -0.136116 0.583878 0.170373 -0.206665 -0.627299 -0.667762 0.763746
train -0.204661 -0.338239 -0.656117 -0.459569 -0.120967 0.084203 -1.068187 -0.027937 -0.651317 -0.344794 0.043223 -0.345449 -0.410144 -0.553352 -0.482199 -0.216548 -0.810207 -0.375150 -0.324667 -0.497544 0.222178 0.583997 -0.310774 0.119905 -0.009072 -0.570720 -0.523902 -0.811029 0.628231 -0.274864 -0.173686 -0.415266 0.267706 -0.320008 -0.764035 -0.452253 -0.258569 0.540053 0.362120 -0.215022 0.337062 0.093054 1.017882 0.863935 0.414266 0.036603 -0.673501 0.307237 0.583195 -0.248180
field 0.086282 0.437854 -0.512457 0.015961 0.380363 -0.348200 -0.557182 0.389020 -0.565812 -0.230461 -0.069687 -0.386670 0.076835 0.003322 0.018798 0.092249 -0.590441 -0.076287 0.179880 -0.323207 0.014802 0.084150 -0.132651 -0.095672 0.130362 -0.364378 0.503725 -0.691718 0.073727 0.035315 -0.551279 -0.066205 -0.007957 0.611889 0.021765 -0.074023 0.129817 -0.159298 0.136499 -0.502046 -0.228448 -0.088470 0.406906 0.267763 0.550310 0.306693 -0.085131 0.094977 0.220827 0.116447
moonlight 0.101067 0.109273 0.494750 0.381472 0.023078 -0.350958 -0.080132 0.147821 -0.197993 0.008820 0.018550 -0.375196 -0.324890 -0.116364 0.193728 0.569515 -0.209943 -0.163237 -0.052935 -0.215326 0.050856 0.334821 -0.374453 -0.049081 -0.513632 -0.341317 0.219185 -0.312770 0.283170 0.170010 0.006107 -0.357557 -0.511951 0.234074 -0.292225 0.261000 0.306590 -0.342174 0.065238 0.250946 -0.423564 0.347194 -0.084902 0.054736 0.325120 0.352912 -0.534787 -0.131286 0.052232 0.435030
come 0.151063 0.207061 -0.147570 0.666985 -0.364372 -0.235051 0.211237 0.028851 0.431758 0.269189 0.600497 -0.169752 -0.430570 -0.152694 -0.430651 0.197608 -0.029160 0.452712 -0.451429 -0.442336 -0.056735 -0.597109 0.082348 -1.002631 0.395904 0.681070 -1.174899 0.130123 0.182287 -0.511855 0.192551 -0.089612 -0.079475 -0.559101 -1.028169 0.002136 0.169704 0.601434 -0.592259 0.096461 0.031265 0.419033 0.221693 -0.313315 0.366636 -0.506750 -0.879346 0.145690 0.527240 0.240841
door 0.213753 0.293792 0.450206 -0.691407 0.472131 -0.088241 -0.500775 0.157937 -0.175833 -0.153764 -0.144575 -0.063349 -0.694198 -0.005657 -0.243018 0.157057 -0.961442 0.093981 -0.156159 -0.283495 0.724025 0.867195 -1.069512 0.373759 0.258921 -0.378772 0.262465 -0.017574 0.333916 0.417530 -0.270053 -0.290453 0.247552 -0.163737 -0.758249 -0.728644 0.133971 0.460258 0.199050 0.132656 -0.007331 0.593077 0.882602 0.143524 0.947785 0.081514 -0.587411 -0.006661 0.509754 0.070926
coffee 0.121485 0.140659 0.216106 0.060819 -0.096125 -0.643697 0.814605 0.306257 0.376501 -0.500517 -0.638246 -0.335194 -0.294861 -0.504030 -0.076376 0.305625 -0.768743 -0.782707 0.227771 0.303742 -0.025520 -0.129764 -0.036118 -0.182626 1.063787 -0.964406 0.229339 -0.585686 0.421200 -0.332542 -0.569189 1.274018 -1.137329 -0.126148 0.380183 0.304606 -1.014788 0.257689 0.053418 -0.232695 -0.308980 0.667050 -0.156986 -1.036941 0.153173 -0.057986 0.557983 -0.310336 0.107527 -0.847170
thoughts -0.296932 -0.333650 1.343565 0.015267 -0.315454 -0.604380 0.958334 -0.261809 0.253430 0.018848 -0.029365 0.546780 -0.641728 -0.600062 -0.036423 -0.008678 0.777858 0.441554 -0.459361 -0.167856 -0.222364 -0.066682 -0.451107 -0.322873 -0.597943 -0.106448 0.779646 -0.017736 0.289344 0.706613 0.618553 -0.475567 -0.461178 -0.048751 -0.485894 -0.024039 -0.260444 0.604988 -0.291028 0.776546 1.016535 0.434147 -0.010836 0.531711 0.397565 -0.260573 -0.211281 -0.018634 -0.008677 0.544336
much 1.130054 0.649026 -0.158613 -0.364817 -0.380538 -0.651584 0.325127 0.041497 0.961784 -0.895283 -0.039725 -0.469194 -0.393929 -0.248706 -0.976746 -0.106691 0.141739 -0.197937 0.347732 0.165294 -0.883468 -0.083383 -0.045701 0.018264 -0.587427 -0.208071 0.310828 -0.346338 -0.156346 -0.055313 0.340868 -0.026889 -1.604424 -0.221936 -0.427495 0.498211 -0.024863 -0.951245 -0.953986 -0.135054 0.523439 -0.144191 0.405412 -0.549903 0.211192 -0.206621 -0.227335 -0.020557 0.612967 -0.497868
waiting 0.221730 -0.101167 0.360767 -1.024316 1.175592 -0.812298 -0.027438 -0.148699 -0.325198 -1.097675 -0.071007 -0.691035 -0.141780 -0.151944 0.119173 -0.393631 -0.351567 -0.091836 0.454303 -0.115709 0.851449 -1.137282 -0.612427 -0.206408 1.038852 -0.050085 -0.315848 -0.323134 0.033130 0.191961 -0.102985 -0.329824 -0.712715 -0.675762 -0.208479 0.312430 -0.087864 -0.657479 -0.004772 -1.222948 0.867026 0.008797 0.525377 -0.102382 0.834267 0.045977 -0.544179 -0.665306 -0.727080 -0.359110
nothing 0.313251 0.337975 -0.223394 0.433161 -0.395439 -0.072536 0.116708 0.677953 0.462153 -0.380217 -0.045472 0.208414 -0.505689 -0.194528 -0.444468 -0.789221 0.677318 0.124996 -0.047727 -0.067417 -0.240275 -0.893261 0.223421 -0.722360 0.351931 -0.028845 0.258934 -0.512586 0.485348 0.377849 0.243865 0.032223 -1.194773 0.074944 -0.478049 0.267766 -0.185149 -0.234314 -0.429255 0.110393 -0.066394 0.130236 0.436491 0.231363 0.700681 -0.367528 -0.444910 0.184593 0.516230 0.424931
take 0.455460 0.610924 0.184385 -0.134318 -0.020470 -0.639970 0.819255 -0.624217 -0.026731 0.048084 0.107079 0.212692 -0.578281 -0.066730 -0.844896 0.171351 -0.069450 -0.119599 -0.282561 -0.346039 -0.349844 0.039105 0.128985 -0.245500 0.269596 0.326154 -0.593984 0.186421 -0.161500 0.042480 -0.221168 0.025685 -0.616965 -0.282480 -0.804115 0.277206 -0.095210 0.393544 -0.379873 -0.245869 0.265621 -0.093149 0.290240 -0.771601 0.072547 -0.061769 -0.422875 0.545658 0.111744 0.495744
bird -0.640266 -0.691320 0.479295 -0.611528 0.188789 -0.195343 -0.073645 0.090862 -0.017885 -0.902355 0.532463 -0.288334 -0.312951 -0.585194 0.199585 -0.029006 0.388600 -0.642863 -0.351247 -1.112728 0.037330 -0.022811 -0.004616 0.375363 0.120826 -0.579726 -0.313657 -0.647296 -0.197872 -0.525321 -0.224825 0.191411 -0.353679 0.127214 -0.427161 0.261389 -0.291137 0.677027 -0.280021 -0.506831 0.075096 0.432056 1.240659 0.763438 -0.274484 0.114508 0.513258 -0.103213 -0.496225 0.160278
high -0.350709 -0.089283 -0.384187 0.251513 -0.569255 0.008843 0.252978 0.543023 -0.260410 0.193286 0.195347 0.710815 -0.058329 0.373878 0.048056 0.527631 -0.311035 -0.107836 0.494917 -0.342822 0.094651 0.015061 0.373383 0.057739 0.483337 -0.318481 -0.466503 -0.770994 0.128686 -0.792994 -0.646084 -0.527485 -0.006121 0.808523 0.352789 0.031657 0.549894 0.351398 -0.907849 -0.713216 0.298919 0.306397 0.411932 -0.999731 0.148221 -0.248475 -0.418078 -0.802477 0.538818 0.682322
room -0.074657 -0.325381 -0.084461 -1.097554 0.802356 -0.652290 -0.314523 -0.744799 -0.761370 -1.019638 0.020798 -0.449215 -0.342555 -0.001994 0.029744 -0.305415 -0.179193 -0.479541 0.343258 -0.467419 0.422417 -0.125548 -0.723889 0.245891 0.881063 -0.088255 -0.570884 -0.471664 0.233726 -0.025726 -0.653643 0.596087 -0.414455 -0.493535 -0.686057 0.138175 -0.305453 0.138818 0.017037 -1.125443 0.317907 -0.169770 0.748648 -0.100099 0.339127 0.203855 -0.494071 -0.619531 -0.127270 -0.896311
frost 0.586597 0.112271 0.213287 0.234347 -0.090285 -0.617731 -0.412591 0.333093 -0.126799 -0.166311 -0.288694 -0.601634 0.250537 -0.123896 -0.018582 0.297327 -0.678860 -0.170705 0.113168 -0.156687 -0.105585 -0.173811 -0.110696 -0.386485 0.107576 -0.892330 0.347808 -0.626842 1.048973 -0.295169 0.328052 0.362694 -0.203735 1.025119 -0.110215 -0.017425 -0.164916 0.157083 -0.100247 0.941798 -0.467729 0.993422 -0.133908 0.021585 1.186529 -0.369506 -0.147151 0.103655 0.358635 -0.545545
children 0.400335 -0.355996 0.305031 0.908422 0.207110 -0.810039 -0.391983 -0.533506 0.401181 -0.352598 0.739720 0.361566 -0.293285 0.308543 0.089368 0.228917 0.158759 -0.153628 0.977929 -0.748550 -0.417293 -0.283565 0.640540 -0.061421 0.126985 0.145630 -0.822641 -0.066696 0.244607 -0.521678 -0.141255 0.062138 0.509130 0.143622 0.327611 0.377339 -0.484096 -0.253703 -0.188224 0.388025 -0.272597 0.137644 0.332262 0.003267 -0.229371 0.416934 -0.649348 0.189580 0.064989 -0.194433
early 0.629704 0.567627 -0.030514 -0.138093 -0.032719 -0.605070 -0.211995 0.291841 -0.773909 -0.490369 -0.489680 -0.422258 0.492489 -0.459169 -0.140201 0.610619 -0.646785 -0.220398 0.376195 -0.034793 -0.124432 -0.654818 -0.018248 -0.225897 0.438925 -0.678243 -0.503705 -1.131674 1.174267 -0.535676 0.061152 -0.083685 -0.423957 0.752832 0.067478 0.174157 -0.134076 0.161679 0.090416 -0.005916 0.064809 0.590061 -0.383385 -0.142564 1.128595 -0.655528 0.028811 -0.128061 0.136076 -0.606711
lights 0.655183 -0.199633 1.510554 -0.061819 0.405596 0.032701 0.042151 -0.052192 -0.945955 -0.088635 -0.032560 0.620506 0.200697 -0.312644 -0.065244 0.234813 0.118799 -0.580714 0.160096 0.507885 0.702178 0.479348 0.088877 -0.173123 0.266438 0.047718 -0.639739 -0.685477 0.151123 0.215842 -0.553094 -1.018694 0.404526 0.434549 -0.613328 -0.344056 -0.841967 0.395195 0.802021 -0.395381 0.650778 -0.379452 0.912884 0.406878 0.142062 0.022480 -0.698693 -0.693539 -0.023194 0.855330
yellow 0.372746 0.269059 0.800273 0.528428 0.311248 -0.007815 0.117388 0.446071 -0.307111 0.173814 0.094247 0.126000 0.781236 -0.359839 -0.104408 0.353916 0.056714 -0.596585 -0.209810 -0.209413 -0.256947 -0.038940 -0.050983 -0.365769 -0.172404 -0.001782 0.806562 -0.432756 -0.117581 -0.308496 -0.340849 -0.392149 -0.191274 1.005526 0.057840 0.816233 0.590478 -0.330416 0.267694 -0.908689 -0.297165 0.160184 -0.052610 -0.045023 0.105710 0.085269 -0.925703 -0.461487 -0.597860 -0.004242
make 0.541121 0.052509 0.532980 0.035276 0.005104 -0.470905 0.234255 0.133029 0.178966 -0.292910 0.121062 0.545414 0.223608 -0.043168 -0.579491 -0.182885 0.460163 -0.063896 0.288889 -0.027838 -0.540773 0.136331 0.227902 -0.013648 -0.638069 0.242245 -0.577162 0.323575 -0.011435 -0.056404 0.250262 -0.117830 0.015713 -0.576504 -1.064567 -0.103613 0.469496 -0.080361 -0.990316 -0.280231 0.248675 -0.037473 0.359277 -0.261455 0.853572 0.025367 -0.378557 0.203397 0.374819 1.105768
wild -0.212696 -0.050543 0.470333 -0.334715 0.457329 0.368058 -0.983716 0.124276 -0.343654 -0.097384 0.048263 -0.243478 -0.103386 0.060598 -0.180415 -0.098428 -0.150972 -0.191153 0.632440 -0.138421 -0.017442 -0.034366 -0.030801 0.339707 0.060511 0.403261 0.247879 -0.436008 0.021294 -0.651422 -0.289333 -0.131194 -0.087231 0.258161 -0.058785 0.743308 -0.013261 -0.252152 -0.634929 -0.812255 -1.035525 0.220126 0.333745 -0.417364 -0.049408 0.134849 -0.966490 -0.566401 -0.005926 -0.137803
butterfly 0.079153 0.158444 0.870031 0.308067 -0.039219 -0.142140 0.545847 0.370893 -0.190850 -0.512119 0.036360 -0.164530 -0.235881 -0.624138 0.273426 0.344678 -0.341241 -0.736216 -0.934622 -0.157363 -0.157848 0.264446 -0.254288 -0.074832 -0.047197 -0.321150 0.492334 -0.280170 -0.106994 0.051226 -0.152389 -0.465352 -0.839145 0.498233 0.275863 0.479423 0.253223 0.031150 0.596499 -0.452495 0.210312 0.147344 0.289266 -0.227666 -0.088085 -0.125062 0.088498 -0.314487 -0.582279 0.086620
tide -0.522191 0.360030 -0.831847 0.600735 -0.550155 -0.579090 -0.285282 0.405157 -0.254756 0.145693 0.364800 0.801252 -0.212282 0.220238 -0.283452 0.029863 -0.623605 0.015538 0.967147 -0.393718 0.367507 -0.523559 0.241643 -0.040796 0.838789 -0.862902 0.330973 -0.593618 0.378764 -0.596801 -0.510532 -0.900315 0.154096 0.407086 0.915635 -0.039113 0.678540 -0.078150 -0.375357 -0.790925 -0.338358 -0.333628 0.192494 -0.692540 0.476653 -0.012163 -0.193586 -0.407562 0.468998 0.745720
days 0.798461 0.728850 0.662762 -0.352335 -0.144724 0.374805 1.036867 -0.422941 0.156395 -0.681108 -0.091475 -0.431063 0.181347 -0.936530 0.145624 0.593741 0.805460 -0.360118 0.561002 0.066608 -0.450632 -0.347576 -0.246812 0.139620 -0.575982 0.107977 -1.121018 -0.183199 0.707163 -0.396130 0.189234 -0.506783 0.027481 0.268339 0.080894 0.074210 -0.017270 -0.802818 0.574381 -0.193140 0.640123 -0.272073 0.132171 1.112598 0.409873 0.144858 -0.737099 -0.257176 0.065531 -0.063570
street 0.509505 -0.148494 0.165045 0.041181 0.343834 0.531490 -0.061426 -0.042508 -0.555524 0.052506 -0.297047 -0.430284 -0.035392 -0.164113 -0.041504 0.646991 0.174498 -0.526272 -0.314658 -0.251659 -0.127818 0.372107 -0.292790 -0.119723 -0.157271 0.455863 -0.446614 -0.713224 -0.057329 -0.488530 -0.836255 -0.433345 0.609613 0.483362 -0.895518 -0.373317 0.012340 0.324805 0.508316 -0.621165 -0.406128 -0.279640 0.182084 0.482360 0.076477 -0.071146 -0.448062 -0.275455 -0.300600 0.199252
line 0.087524 0.026986 -0.451630 0.161045 -0.107016 -0.711506 -0.059791 0.243492 0.355695 -0.681281 0.480713 0.033086 -0.296360 -0.133312 -0.114907 0.614823 0.144078 -0.488150 -0.142812 -0.401448 0.142137 -0.261674 -0.066365 -0.183613 0.452183 -0.124607 -0.241307 -0.221661 0.375685 -0.294533 -0.262625 -0.491695 0.012769 -0.082914 0.132050 0.322398 0.538385 -0.447704 0.407712 -0.753503 0.148309 0.076606 0.617967 0.015214 -0.083513 0.282283 -0.603729 -0.294896 -0.182074 -0.087168
many 0.761086 0.028326 -0.437834 -0.341218 -0.055818 0.170128 0.203105 -0.599729 0.598748 -0.978720 0.334213 -0.215540 0.180572 -0.157259 -0.661967 0.357074 0.428544 -0.196586 0.527318 -0.368767 -0.675073 0.326149 0.156802 0.072821 -0.827111 -0.105649 -0.220367 -0.392894 0.216375 -0.571181 0.332190 -0.090118 -0.372309 -0.347245 0.199150 0.535023 -0.134147 -0.254655 -0.396891 -0.267483 0.660947 -0.228125 0.155374 0.647357 0.122559 0.188416 -0.514306 0.591678 0.084641 -0.442874
walk 0.222442 0.244518 -0.235691 -0.376033 -0.017376 -0.824372 0.020447 -0.339319 -0.258091 -0.146289 0.011335 -0.159999 -0.499952 -0.637198 -0.461733 0.758819 -0.322658 0.010110 0.107624 -0.049148 -0.328150 0.097985 -0.524585 -0.090098 0.252529 -0.283337 -0.280413 -0.604513 0.570151 -0.202591 -0.151889 -0.021631 -0.140818 -0.022873 -0.512644 -0.021477 -0.233417 0.303902 0.534280 -0.398636 0.261015 0.083180 0.375679 -0.000833 0.476095 0.064950 -0.594556 -0.341871 0.081167 -0.390509
work 1.087245 -0.484613 -0.212692 -0.051875 -0.133062 -0.741895 -0.101252 -0.581429 -0.510398 -1.062049 -0.235827 0.532191 -0.876452 -0.597613 -0.123075 -0.051110 0.772826 0.835290 -0.362728 0.117832 -0.783318 0.265198 0.337181 -0.025284 1.070609 0.372177 -0.295346 -0.233608 0.536527 0.228841 -0.410530 0.812191 -0.084315 -0.259133 -1.353680 -0.511090 -0.486578 -0.571617 -0.309268 -0.284198 0.762932 0.046552 0.518114 -0.259629 0.127983 -0.958419 -0.469788 0.176558 0.218810 -0.034504
always 0.704477 0.607040 -0.370809 0.160799 -0.122014 -0.002886 0.515063 0.232511 0.987819 -0.013764 0.376293 -0.353441 -0.832355 0.716556 0.031772 -0.527092 0.144810 0.363637 -0.154005 -0.283123 0.573649 0.569071 0.020086 -1.082777 -0.535581 -0.094138 -0.242237 -0.204080 0.046879 -0.249221 0.315969 -0.379872 -0.753366 -0.275058 -0.649271 -0.024832 0.405339 -0.251144 -0.759209 0.176642 -0.437873 0.192062 0.339835 0.000598 0.688672 -0.192628 -0.301663 0.320160 0.586814 0.395764
mind -0.252697 0.184403 0.251501 0.073294 -0.383943 -0.502872 0.668241 -0.379393 0.427113 0.139040 0.093694 -0.074369 -1.326148 0.081598 0.100539 0.268403 0.127976 0.177370 -0.701691 -0.289850 0.468440 0.182892 -0.275208 -0.213271 -0.140336 -0.059678 -0.008047 -0.149655 -0.091324 0.062140 0.222968 -0.278837 -0.771830 -0.673654 -0.347123 -0.087301 -0.181472 0.458809 -0.117597 0.097501 -0.214787 0.428150 0.077918 -0.007639 0.176406 0.138490 -0.258069 0.031734 0.144909 0.376074
slow 0.197271 -0.116786 -0.347604 -0.141501 -0.592457 0.125773 0.266014 0.263034 0.547446 -0.143770 0.055489 0.842082 -0.307998 -0.499978 -1.008645 0.681108 0.070940 -0.293723 0.031991 -0.155060 -0.387427 0.795734 -0.400849 0.124966 -0.239232 -0.304318 0.032108 -0.487736 0.298690 -0.868404 -0.095426 -0.701891 0.270761 -0.145116 -1.040825 -0.457241 -0.159299 0.220186 0.095630 -0.481530 0.316293 -0.132162 0.130686 -0.044502 -0.222091 -0.194984 -0.072394 -0.079404 -0.349555 -0.191026
